tree
version=v4
num_class=5
num_tree_per_iteration=5
label_index=0
max_feature_idx=11
objective=multiclass num_class:5
feature_names=COD_UF_EMIT TIP_FIN_NFE COD_CEST COD_CST COD_NCM COD_CFOP EMIT_COD_CNAE EMIT_CRT EMIT_IND_SN DEST_CNAE_PRINC DEST_POSSUI_IE DEST_SIMPLES
feature_infos=-1:10:5:1:16:13:9:17:3:8:4:6:11:14:7:12:0:15 none -1:388:345:307:430:348:0:344:41:146:158:431:210:343:255:40:197:235:148:167:418:161:379:19:328:49:204:399:21:206:349:166:188:417:174:169:350:2:153:189:412:335:37:217:24:72:113:160:163:184:347:400:86:155:168:330:351:177:301:357:413:63:88:178:422:48:154:162:185:334:375:202:3:407:411:309:109:138:402:78:172:213:403:51:159:220:90:38:42:208:260:332:10:17:110:190:211:212:326:428:67:85:195:245:381:392:415:436:438:68:120:180:214:216:242:358:387:391:432:434:13:50:89:100:108:125:128:254:295:369:427:433:439:441:11:16:52:75:207:59:71:99:102:121:170:176:191:194:203:233:327:333:360:393:425:444:29:53:69:116:165:198:264:277:289:329:339:340:342:372:385:426:7:15:32:57:58:73:74:103:107:135:151:171:183:187:215:237:246:279:297:300:302:303:336:346:353:354:373:378:389:395:401:416:419:437:443:447:1:20:23:27:39:55:62:83:84:115:122:126:131:132:156:173:175:193:229:238:240:271:286:288:290:305:352:364:377:384:405:408:424:440 -1:0:1:9:6:7:4:5:8:2 -1:258:543:933:989:669:670:918:362:263:680:917:912:260:535:1225:436:69:247:143:548:971:1071:573:1067:430:538:999:246:981:1193:855:251:911:1086:713:1104:554:250:364:934:363:973:990:558:549:1085:410:697:1269:937:1016:234:943:1030:793:205:537:540:901:374:1035:674:813:961:1065:938:395:671:678:1000:1070:530:811:895:56:244:531:883:904:921:1018:169:532:913:926:1292:992:1140:58:639:675:1191:936:663:102:124:280:432:740:919:1012:1056:1318:235:245:552:714:1207:254:633:914:1058:1213:892:929:715:891:1158:673:768:1102:117:273:329:550:579:802:902:1007:1040:1277:207:351:365:833:1375:221:307:411:526:699:1356:53:62:94:107:546:617:886:991:1252:1353:119:252:415:434:536:591:735:791:827:850:993:1072:1182:551:568:910:930:939:980:1025:1202:1307:161:200:233:371:1033:1064:1136:1195:1215:1338:0:3:132:349:515:658:690:757:814:957:967:1063:1069:1186:1273:1306:25:130:248:249:375:433:553:563:641:665:666:709:717:761:764:790:792:1055:1077:1129:1172:1253:1367:73:109:360:423:565:589:607:625:689:732:789:878:882:884:894:900:935:963:1127:1180:1184:1275:1332:34:202:269:276:312:314:354:359:385:420:636:642:683:746:788:800:848:893:898:942:1015:1021:1209:1228:1371:5:113:135:398:514:519:524:586:656:660:795:810:879:889:925:947:1027:1090:1130:1157:1200:1291:1355:1363:11:45:46:115:152:210:218:268:279:283:296:361:368:533:544:703:733:787:799:828:928:958:982:984:986:995:1028:1276:1327:14:39:153:156:306:405:409:489:527:561:581:603:643:655:698:724:762:763:797:829:851:853:861:872:907:920:965:974:976:994:998:1011:1029:1032:1037:1042:1053:1060:1062:1068:1073:1087:1088:1135:1155:1194:1196:1229:1232:1265:1279:1337:1352:13:18:27:33:48:63:98:112:123:125:177:228:230:239:278:288:295:324:373:377:390:396:416:419:556:632:634:664:700:705:708:726:736:770:780:906:946:985:1034:1043:1120:1131:1245:1255:1266:1280:1296:1301:1303:1336:1341:10:19:29:40:60:61:74:103:114:122:126:129:140:154:157:178:184:187:195:215:216:232:257:264:267:271:286:298:303:304:332:341:357:370:414:426:427:444:463:472:488:497:529:542:545:582:592:606:628:637:659:668:696:704:731:739:784:794:815:858:874:888:941:945:954:978:979:1036:1066:1079:1095:1099:1110:1111:1126:1137:1156:1164:1190:1197:1210:1223:1259:1267:1284:1285:1308:1315:1316:1322:1345:1382:1391:12:31:38:41:51:54:59:100:108:141:159:179:201:203:211:213:219:220:227:243:266:270:281:282:301:321:327:331:334:367:394:412:418:461:465:479:485:490:493:517:521:523:541:547:560:577:587:597:600:613:618:623:630:635:649:652:653:662:686:693:694:695:729:765:778:779:835:849:854:864:871:881:899:916:922:931:966:975:1006:1023:1044:1045:1054:1075:1080:1096:1097:1107:1118:1119:1149:1187:1189:1226:1233:1247:1249:1250:1262:1281:1295:1314:1326:1334:1346:1368:1372:1378:1385:1390 -1:27:7:10:21:12:8:26:14:25:11:20:17:24:6:4:3:15:5:18:22 -1:29:19:71:61:14:37:72:11:52:47:16:115:100:34:48:84:0:73:89:55:70:50:68:108:91:17:85:90:94:12:62:111:114:6:10:24:1:25:35:36:54:103:22:59:86:120:7:20:33:79:106:5:13:49:57:118:119:122:21:23:42:77:80:92:121 -1:2:0:1 -1:0:1 -1:95:39:69:53:74:18:65:63:16:85:60:52:37:51:42:24:12:48:27:36:73:28:58:2:84:35:86:22:21:17:61:71:66:44:62:32:94:14:15:34:20:11:29:59:72:82:90:46:9:49:10:70:64:68:41:38:43:4:47:50:40:26:75:76:0:19:33:54:67:93:23:31:57:92 -1:1:0 -1:0:1
tree_sizes=1790 542 554 1550 986 2000 1466 1210 1873 1659 2103 1173 1218 2137 1615 1819 1464 1236 2136 1823 2573 1175 1222 2165 2362 2340 1472 1215 2446 1518 2052 1349 849 2051 1522 2252 953 1222 2166 1332 2047 1043 1218 2161 1618 2047 1347 1218 2467 1371 2836 1517 858 2509 1344 2485 1345 1223 2845 1603 2552 1348 856 3096 1608 2497 1523 1233 3009 1580 2697 951 1230 2128 1593 2777 1053 1618 2578 1320 2585 960 1223 2140 1533 2615 1349 1628 2384 2098 2865 1347 1614 2450 2102 2359 1055 1617 2584 1935 2658 1627 1034 3000 1520 2700 1130 853 3098 1518 2724 1458 1610 2436 1906 2263 1625 1032 3002 1916 3161 1133 1595 2851 1657 2531 1356 1601 2640 1929 3218 1356 1319 2557 1654 2977 1361 1319 2441 1660 3380 958 933 2770 1465 2723 965 1211 2618 1815 2952 1635 1510 2335 1865 2793 1259 1420 1857 1564 3168 1264 1419 2437 1767 3292 1138 1411 2621 1467 2707 869 1317 2736 1569 3040 1633 1513 2822 1672 3275 1637 1527 2736 2147 3300 1238 1224 2424 1383 2736 1641 1511 2830 2080 3041 1640 1515 2452 1685 2901 1062 1481 2875 1626 2753 1066 1091 3063 1882 2972 675 1619 2865 1777 3057 1046 1616 2852 1032 3224 1069 1540 2851 1361 2776 772 1334 3049 1125 2590 1062 1316 3176 1620 2584 1072 933 2781 1028 2381 1073 856 2638 1520 2539 1147 1626 2691 1027 3371 1075 1246 3243 2105 2612 1074 1228 2329 1182 3717 1075 1225 3228 1681 3566 1448 1230 2725 1678 3413 1078 939 3274 1686 3321 1034 1528 3336 1374 2952 974 1333 3210 1373 2033 866 1523 2811 1374 3126 868 1530 2605 1371 3606 866 1535 2513 1471 3366 868 1526 2208 2059 3063 768 1629 2224 2066 2787 966 1530 2903 1635 3618 869 1539 2100 1681 2903 868 1526 2098 1868 1903 1560 945 2410 1681 1905 1556 1250 3086 1360 3233 1058 1251 3105 1517 2977 1454 1136 3131 1518 3151 1153 1149 2337 1626 2523 771 1533 2994 1182 2702 668 1435 1903 1181 3384 672 1434 3205 1513 3358 672 1235 1961 884 3579 674 1039 2843 1182 3250 854 1136 2004 2144 3262 855 1243 2105 1688 2550 851 1531 2489 2165 3152 676 1539 2119 1691 2853 655 1435 2099 1267 3695 671 1549 1859 1861 3762 476 1637 2059 1433 2461 676 1242 2269 1538 3987 480 1539 2104 1396 3545 675 1533 2208 2043 2507 676 1043 2578 984 2479 673 1555 2881 989 2771 675 1249 2490 1346 2640 676 1336 1988 982 2734 675 1244 2899 1348 3600 675 1052 1934 1492 3425 675 1438 1778 1394 3394 677 1246 1996 1497 2282 676 1054 2427 989 2925 675 1152 2748 1160 3149 677 1341 1701 984 3152 676 1350 1406 1472 2710 678 1245 2103 1366 2875 680 1140 2280 1471 3538 681 1246 1898 1561

Tree=0
num_leaves=17
num_cat=16
split_feature=5 10 7 2 11 11 7 10 8 11 7 11 7 11 8 8
split_gain=5109.79 1506.03 71.7873 8.73395 5.55148 4.11262 3.45262 2.21544 1.99018 1.61862 1.02402 0.165618 0.0652129 0.00108762 0.000528264 2.27374e-13
threshold=0 1 2 3 4 5 6 7 8 9 10 11 12 13 14 15
decision_type=9 1 9 9 1 1 9 1 1 1 9 1 9 1 1 1
left_child=1 3 -3 5 -5 6 -1 8 11 -10 -7 12 -2 14 -4 -9
right_child=7 2 13 4 -6 10 -8 15 9 -11 -12 -13 -14 -15 -16 -17
leaf_value=-0.89531937223655278 -1.0443807765086299 -0.94792449288903213 -1.0481018645567417 -0.92054796665991556 -0.88975205442175898 -0.89503316985194892 -0.8796076551644334 -1.0484694482645662 -1.0057378422299643 -1.0413475139254658 -0.87754302412615837 -1.046003251245921 -1.0484694482645662 -1.0484694482645662 -1.0484694482645662 -1.0484694482645662
leaf_weight=36.565441638231277 501.38533574342728 19.891600251197815 136.02344289422035 137.19353702664375 16.381317853927612 62.892559617757797 799.1742924451828 726.9209797680378 5.8504706621170026 7.0205647945404053 9.6532765924930555 263.56370332837105 9.9458001255989057 27.789735645055771 10.530847191810606 14.333653122186659
leaf_count=125 1714 68 465 469 56 215 2732 2485 20 24 33 901 34 95 36 49
internal_value=-0.984899 -0.910495 -1.03792 -0.88649 -0.921381 -0.882412 -0.880295 -1.04611 -1.04466 -1.02516 -0.892706 -1.04499 -1.04446 -1.04818 -1.04813 -1.04847
internal_weight=2785.12 1256.1 194.236 1061.86 153.575 908.286 835.74 1529.02 787.766 12.871 72.5458 774.895 511.331 174.344 146.554 741.255
internal_count=9521 4294 664 3630 525 3105 2857 5227 2693 44 248 2649 1748 596 501 2534
cat_boundaries=0 1 2 3 16 17 18 19 20 21 22 23 24 25 26 27 28
cat_threshold=3149952 2 1 1 512 0 0 0 0 0 2147483648 0 0 318767104 0 16 1 1 1 2 1 1 4 1 4 1 1 1
is_linear=0
shrinkage=1


Tree=1
num_leaves=3
num_cat=2
split_feature=4 10
split_gain=171.532 3202.37
threshold=0 1
decision_type=9 1
left_child=1 -1
right_child=-2 -3
leaf_value=0.18832404916817946 -5.437391217927952 -5.4438586952742458
leaf_weight=0.36397967720404267 52.127489462960511 0.82315403921529628
leaf_count=65 9309 147
internal_value=-5.40541 -5.2247
internal_weight=53.3146 1.18713
internal_count=9521 212
cat_boundaries=0 34 35
cat_threshold=0 0 0 0 0 0 32768 0 0 0 0 0 0 262144 0 0 0 0 0 0 0 0 0 0 0 0 0 0 0 0 0 0 0 2148480 2
is_linear=0
shrinkage=1


Tree=2
num_leaves=4
num_cat=3
split_feature=10 8 11
split_gain=7436.83 37.8395 0.0480008
threshold=0 1 2
decision_type=1 1 1
left_child=-1 2 -2
right_child=1 -3 -4
leaf_value=-1.1586122875952263 -0.9786826307891725 -1.0286122899198074 -0.97970319988527899
leaf_weight=1756.3889726400375 710.833367228508 40.000001907348633 137.50000655651093
leaf_count=6323 2559 144 495
internal_value=-1.09898 -0.981089 -0.978848
internal_weight=2644.72 888.333 848.333
internal_count=9521 3198 3054
cat_boundaries=0 1 2 3
cat_threshold=2 1 1
is_linear=0
shrinkage=1


Tree=3
num_leaves=15
num_cat=14
split_feature=5 10 3 11 0 11 11 10 10 7 11 7 7 7
split_gain=6316.37 84.9186 57.6331 42.8328 40.1963 13.4333 9.00488 7.2997 2.7791 0.736962 0.0407558 0.0151248 0.00645954 0.000116689
threshold=0 1 2 3 4 5 6 7 8 9 10 11 12 13
decision_type=9 1 9 1 9 1 1 1 1 9 1 9 9 9
left_child=1 6 3 -2 5 7 9 -4 10 -1 12 -12 -6 -8
right_child=2 -3 4 -5 8 -7 13 -9 -10 -11 11 -13 -14 -15
leaf_value=-1.1717635115572793 -1.3158968663007757 -1.3401554071646269 -1.3182789575981322 -1.1838780205198691 -1.3561280753114855 -1.2665857175113777 -1.1587940416631024 -1.3611087997873876 -1.3611087997873876 -1.1585593377673664 -1.3584553133853787 -1.3563983471822709 -1.3568750187299021 -1.1585593377673664
leaf_weight=390.02820134162903 27.647568702697754 7.1587454676628104 56.035697281360626 7.8993053436279288 30.116101622581482 11.108398139476774 213.03439098596573 12.095811307430266 767.71373808383942 10.861544847488402 56.529403865337372 10.614691555500029 744.01582205295563 5.4307724237442008
leaf_count=1580 112 29 227 32 122 45 863 49 3110 44 229 43 3014 22
internal_value=-1.3058 -1.17109 -1.35526 -1.29088 -1.35669 -1.3163 -1.16696 -1.32588 -1.35861 -1.17141 -1.35695 -1.35813 -1.35685 -1.15879
internal_weight=2350.29 626.514 1723.78 35.5469 1688.23 79.2399 619.355 68.1315 1608.99 400.89 841.276 67.1441 774.132 218.465
internal_count=9521 2538 6983 144 6839 321 2509 276 6518 1624 3408 272 3136 885
cat_boundaries=0 1 2 3 4 5 6 7 8 9 10 11 12 13 14
cat_threshold=17664 2 130 1 8200 1 1 2 2 4 1 4 1 4
is_linear=0
shrinkage=1


Tree=4
num_leaves=8
num_cat=7
split_feature=9 4 11 10 8 11 11
split_gain=1710.27 0.836456 3.16764 0.0992216 0.141733 0.100273 0.0509527
threshold=0 1 2 3 4 5 6
decision_type=9 9 1 1 1 1 1
left_child=-1 2 -2 4 6 -6 -3
right_child=1 3 -4 -5 5 -7 -8
leaf_value=-3.5541714272638534 -3.9432024840752882 -4.0695552771791901 -4.0720925963547874 -4.0720925963547874 -4.0560489320290873 -4.0720925963547874 -4.0720925963547874
leaf_weight=7.5841974914073944 1.9396367147564888 98.529186375439167 0.63201645761728298 69.521810337901115 3.1164949461817733 1.4165886119008062 24.757610201835632
leaf_count=348 89 4521 29 3190 143 65 1136
internal_value=-4.02751 -4.06753 -4.01981 -4.06868 -4.06975 -4.06106 -4.07006
internal_weight=207.498 199.913 2.57165 197.342 127.82 4.53308 123.287
internal_count=9521 9173 118 9055 5865 208 5657
cat_boundaries=0 3 24 25 26 27 28 29
cat_threshold=4608 4 2097152 0 0 0 0 0 0 0 1077936128 0 0 0 0 0 0 0 0 0 0 32768 0 8388608 1 2 1 1 1
is_linear=0
shrinkage=1


Tree=5
num_leaves=19
num_cat=18
split_feature=5 10 7 9 7 10 8 11 11 7 7 11 7 8 8 11 11 7
split_gain=4547.21 1287.64 67.4107 2.37488 2.07369 1.85187 1.85164 1.46346 0.958407 0.615235 0.211077 0.124655 0.0570812 0.0040321 0.00211841 0.00123378 1.91165e-07 4.12745e-08
threshold=0 1 2 3 4 5 6 7 8 9 10 11 12 13 14 15 16 17
decision_type=9 1 9 9 9 1 1 1 1 9 9 1 9 1 1 1 1 9
left_child=1 3 -3 4 -1 6 11 -8 10 -10 -5 12 -2 15 16 -4 17 -7
right_child=5 2 13 8 -6 14 7 -9 9 -11 -12 -13 -14 -15 -16 -17 -18 -19
leaf_value=0.042124764705282286 -0.057712902170264348 0.035923890351738201 -0.061077376899995817 0.092219161918930315 0.012639558631212848 -0.061446968719211195 -0.020549333465691901 -0.054633317340560941 0.085147919902004654 0.097173143635083559 0.09640205959192244 -0.059143761288535782 -0.061591020763622772 -0.06206765193768557 -0.062067770630286234 -0.061462288077382667 -0.061449273967038365 -0.061449670980244675
leaf_weight=22.337392747402191 489.75538569688797 19.968571603298187 132.08162894845009 941.3280039280653 8.1347700655460375 577.67783981561661 5.8230293393135053 6.8589984774589539 74.341273546218872 12.412283778190611 31.157978534698486 256.70029971003532 9.675808906555174 12.602251291275023 14.034347295761107 24.714269429445267 113.6071240901947 14.485106110572813
leaf_count=74 1714 68 465 3133 27 2034 20 24 251 41 104 901 34 44 49 87 400 51
internal_value=-1.28316e-05 0.0688407 -0.0509648 0.0902919 0.02579 -0.059239 -0.0579305 -0.0389835 0.0910444 0.0868684 0.0923532 -0.0582483 -0.057788 -0.0612072 -0.0614595 -0.061138 -0.0614474 -0.061447
internal_weight=2767.7 1279.08 189.367 1089.71 30.4722 1488.62 768.814 12.682 1059.24 86.7536 972.486 756.131 499.431 169.398 719.804 156.796 705.77 592.163
internal_count=9521 4294 664 3630 101 5227 2693 44 3529 292 3237 2649 1748 596 2534 552 2485 2085
cat_boundaries=0 1 2 3 6 7 8 9 10 11 12 13 14 15 16 17 18 19 20
cat_threshold=3149952 2 1 537133056 147465 262144 4 2 1 1 1 4 4 1 4 1 1 1 1 4
is_linear=0
shrinkage=0.05


Tree=6
num_leaves=13
num_cat=12
split_feature=2 11 10 8 10 7 10 7 7 7 7 7
split_gain=35.1708 0.600573 0.260968 0.136393 0.0798952 0.0440614 0.00843723 0.000165375 1.73201e-09 1.83283e-10 1.08965e-10 5.62328e-14
threshold=0 1 2 3 4 5 6 7 8 9 10 11
decision_type=9 1 1 1 1 9 1 9 9 9 9 9
left_child=-1 3 5 6 8 -3 7 -2 -5 -4 -8 -10
right_child=1 2 9 4 -6 -7 10 -9 11 -11 -12 -13
leaf_value=0.038535498076461595 -0.041677772298401507 -0.040174143669123225 -0.040172092028788076 -0.040172274636163824 -0.060992863774626066 -0.058208426587692014 -0.040173017599309101 -0.04017483364928421 -0.04017729131560191 -0.040174112930582817 -0.040174016489930048 -0.040177331876535702
leaf_weight=11.960923218168318 30.207296173088253 0.35062630940228701 0.11725464090704918 0.33619383350014687 1.4205315676517787 9.947460239287464 0.27868691412732005 0.18414760287851351 0.1537637934088707 2.5998547077178933 13.418197783641514 0.19224861636757762
leaf_count=76 4861 65 22 63 150 1164 52 34 28 482 2489 35
internal_value=-0.0251053 -0.0380449 -0.0539576 -0.0417977 -0.0542387 -0.0575944 -0.0412043 -0.0416687 -0.0401748 -0.040174 -0.040174 -0.0401773
internal_weight=71.1672 59.2063 13.0152 46.1911 2.10274 10.2981 44.0883 30.3914 0.682206 2.71711 13.6969 0.346012
internal_count=9521 9445 1733 7712 276 1229 7436 4895 126 504 2541 63
cat_boundaries=0 11 12 13 14 15 16 17 18 19 20 21 22
cat_threshold=0 0 0 0 0 0 0 0 0 0 8388608 1 2 1 1 1 2 4 1 1 1 2
is_linear=0
shrinkage=0.05


Tree=7
num_leaves=11
num_cat=10
split_feature=10 7 8 8 11 11 7 8 7 7
split_gain=6398.51 32.8864 37.8348 0.112692 0.0389361 0.000153389 3.80107e-05 4.05618e-05 1.49386e-07 7.40101e-11
threshold=0 1 2 3 4 5 6 7 8 9
decision_type=1 9 1 1 1 1 9 1 9 9
left_child=5 2 -2 4 -3 6 7 -1 -7 -5
right_child=1 3 -4 9 -6 8 -8 -9 -10 -11
leaf_value=-0.058191889351403715 0.10783299888299668 0.10681136350088412 0.010328345441779494 0.11029215570384249 0.1059010958356945 -0.058208722473828294 -0.058168828296097624 -0.058308525939982994 -0.058203970061569799 0.11029234030785487
leaf_weight=40.125405669212341 20.415944039821625 733.59295386075974 19.405844449996948 9.8235064744949341 139.87738418579102 311.79623472690582 1314.0779877007008 9.1545751690864545 17.461783677339554 12.134911000728607
leaf_count=150 70 2506 68 34 478 1164 4910 34 65 42
internal_value=-0.000182554 0.104777 0.0603173 0.106755 0.106666 -0.0581778 -0.0581704 -0.0582136 -0.0582085 0.110292
internal_weight=2627.87 935.251 39.8218 895.429 873.47 1692.62 1363.36 49.28 329.258 21.9584
internal_count=9521 3198 138 3060 2984 6323 5094 184 1229 76
cat_boundaries=0 1 2 3 4 5 6 7 8 9 10
cat_threshold=2 1 1 1 1 1 1 2 4 2
is_linear=0
shrinkage=0.05


Tree=8
num_leaves=17
num_cat=16
split_feature=5 9 9 9 2 0 10 10 10 7 8 7 7 8 8 7
split_gain=5316.77 293.128 135.969 28.6188 12.3083 9.43089 10.2428 1.36335 1.24893 0.04143 0.00598606 0.000919337 0.000359651 0.000830631 1.86855e-07 1.83675e-12
threshold=0 1 2 3 4 5 6 7 8 9 10 11 12 13 14 15
decision_type=9 9 9 9 9 9 1 1 1 9 1 9 9 1 1 9
left_child=1 7 3 -2 -5 6 -4 -1 9 -7 11 -3 14 -14 -10 -15
right_child=2 10 5 4 -6 8 -8 -9 12 -11 -12 -13 13 15 -16 -17
leaf_value=-0.057734732573217831 0.052046456136939895 0.126879564528358 0.0063123832612072567 -0.022922727218774173 0.017551639651130765 -0.050793799764797656 -0.053815442120945682 -0.032467368316256899 -0.05356087353650555 -0.052506563133560738 0.12821580899451543 0.12738423068681501 -0.053718740894651174 -0.054060205358908021 -0.053553275396675606 -0.054060173496291344
leaf_weight=22.878040373325348 24.654258489608765 632.16269671916962 22.908522516489029 33.163053303956985 24.531229540705681 762.82353860139847 10.25281737744808 6.963539436459544 16.304520934820175 37.020418718457222 8.5857856869697553 9.1548376083374006 692.4217282384634 8.1787173449993134 16.063421666622162 10.103110492229462
leaf_count=86 101 2357 93 139 100 3226 43 29 69 155 32 34 2913 34 68 42
internal_value=0.000570251 0.117331 -0.0477068 0.0153797 -0.00566274 -0.0510792 -0.00943327 -0.0388274 -0.0519078 -0.0508731 0.124981 0.126887 -0.0537201 -0.0537275 -0.0535571 -0.0540602
internal_weight=2338.17 679.745 1658.43 82.3485 57.6943 1576.08 33.1613 29.8416 1542.92 799.844 649.903 641.318 743.071 710.704 32.3679 18.2818
internal_count=9521 2538 6983 340 239 6643 136 115 6507 3381 2423 2391 3126 2989 137 76
cat_boundaries=0 1 4 7 9 22 23 24 25 26 27 28 29 30 31 32 33
cat_threshold=17664 4096 4 2147483648 554041344 152072 2097284 537264128 20488 1 0 0 0 0 0 0 0 0 0 0 0 16 8192 2 2 2 4 1 4 1 1 1 2
is_linear=0
shrinkage=0.05


Tree=9
num_leaves=14
num_cat=13
split_feature=9 4 10 11 7 8 7 8 11 8 7 11 7
split_gain=1647.55 8.04158 0.0951709 0.0687555 0.0129213 1.23137e-07 4.6568e-08 1.04341e-07 8.43871e-10 1.92093e-09 2.77815e-10 8.45333e-11 2.22045e-16
threshold=0 1 2 3 4 5 6 7 8 9 10 11 12
decision_type=9 9 1 1 9 1 9 1 1 1 9 1 9
left_child=-1 -2 3 4 -3 -6 8 11 9 -4 -5 -8 -9
right_child=1 2 6 10 5 -7 7 12 -10 -11 -12 -13 -14
leaf_value=0.46928913552811702 0.025334481757109086 -0.037668935704058881 -0.040686522265635072 -0.040690906439707901 -0.040695442338842786 -0.040718625751397994 -0.040690837175068287 -0.040703688731390165 -0.040682631213568798 -0.040683682852473771 -0.040690164986571978 -0.040690678080132339 -0.040703689855063847
leaf_weight=7.5570640303194523 2.2185694575309753 98.393543812446296 1.0988024696707721 23.918020708486438 0.71386813744902522 2.8976900726556782 51.92265690676868 0.76451613754033931 0.45351024344563517 1.3008299767971043 1.3338099997490669 9.9488107245415431 0.8494635596871376
leaf_count=239 98 4621 53 1150 34 135 2489 36 22 63 64 477 40
internal_value=0.0047626 -0.0353268 -0.0372322 -0.038355 -0.0377767 -0.040714 -0.0406909 -0.0406911 -0.0406846 -0.040685 -0.0406909 -0.0406908 -0.0407037
internal_weight=203.371 195.814 193.596 127.257 102.005 3.61156 66.3386 63.4854 2.85314 2.39963 25.2518 61.8715 1.61398
internal_count=9521 9282 9184 6004 4790 169 3180 3042 138 116 1214 2966 76
cat_boundaries=0 3 40 41 42 43 44 45 46 47 48 49 50 51
cat_threshold=4608 4 1310720 0 0 0 0 0 0 0 1073741824 0 0 536870912 0 0 0 0 0 0 0 0 0 75497472 0 32 0 2097152 0 0 0 0 4 0 0 0 0 0 0 268435456 2 1 4 1 1 1 1 1 4 1 4
is_linear=0
shrinkage=0.05


Tree=10
num_leaves=20
num_cat=19
split_feature=5 10 7 9 7 10 8 11 11 7 7 7 8 8 11 11 11 7 7
split_gain=4057.93 1097.18 62.3122 1.64131 1.88094 0.953447 1.89566 1.33691 0.901275 0.543574 0.159868 0.0230942 0.00503727 0.00333485 0.00129717 0.00098066 6.3373e-06 4.15656e-07 2.85752e-10
threshold=0 1 2 3 4 5 6 7 8 9 10 11 12 13 14 15 16 17 18
decision_type=9 1 9 9 9 1 1 1 1 9 9 9 1 1 1 1 1 9 9
left_child=1 3 -3 4 -1 6 11 -8 10 -10 -5 15 16 14 -4 -2 17 -7 -15
right_child=5 2 13 8 -6 12 7 -9 9 -11 -12 -13 -14 18 -16 -17 -18 -19 -20
leaf_value=0.03933320145890315 -0.057037463686417447 0.034104591347390377 -0.058960935920922733 0.084657583835277828 0.0113456672199871 -0.059326312748751144 -0.019852330982477479 -0.052687685464866345 0.077915813510931575 0.089098455238303065 0.088255889652118891 -0.059577209630896889 -0.060306800755012935 -0.059883759366958167 -0.059362269718429429 -0.057160002038097728 -0.059348599363476466 -0.059335686843808827 -0.059883274867081795
leaf_weight=22.562856674194336 473.34224846959114 20.142279088497162 127.72649872303009 965.07910077273846 8.1795457303524035 12.080278158187866 5.7852208316326124 6.6787524223327637 76.04542201757431 12.678833484649656 31.887670189142227 9.3764711022376996 13.674902826547621 6.376439303159712 23.901466488838196 249.24777013063431 109.86389127373695 560.4541172683239 5.8219182193279266
leaf_count=74 1702 68 465 3145 27 44 20 24 251 41 104 34 49 23 87 901 400 2041 21
internal_value=-1.08765e-05 0.0637647 -0.0488847 0.0828985 0.0240602 -0.0576263 -0.0567825 -0.037447 0.0835731 0.0795138 0.0847727 -0.0571117 -0.0593566 -0.0590882 -0.0590242 -0.0570797 -0.0593376 -0.0593355 -0.0598835
internal_weight=2740.91 1300.4 183.969 1116.43 30.7424 1440.5 744.43 12.464 1085.69 88.7243 996.967 731.966 696.073 163.826 151.628 722.59 682.398 572.534 12.1984
internal_count=9521 4306 664 3642 101 5215 2681 44 3541 292 3249 2637 2534 596 552 2603 2485 2085 44
cat_boundaries=0 1 2 3 6 7 8 9 10 11 12 13 14 15 16 17 18 19 20 21
cat_threshold=3150016 2 1 537133056 147465 262144 4 2 1 1 1 4 4 4 1 1 1 1 1 1 4
is_linear=0
shrinkage=0.05


Tree=11
num_leaves=10
num_cat=9
split_feature=2 11 10 7 10 7 10 7 7
split_gain=33.9896 0.567815 0.238623 0.117466 0.0541345 0.0401925 0.00580873 5.16533e-10 3.06666e-10
threshold=0 1 2 3 4 5 6 7 8
decision_type=9 1 1 9 1 9 1 9 9
left_child=-1 3 8 4 -2 -4 -5 -8 -3
right_child=1 2 5 6 -6 -7 7 -9 -10
leaf_value=0.037915880990938504 -0.040165353527369468 -0.040163407888708598 -0.040166185891829263 -0.04143339343266824 -0.057982516696715093 -0.057794599525125501 -0.040165967094321728 -0.040168308651118263 -0.040166091569824196
leaf_weight=11.927836143877357 0.58886322285979986 0.11122141964733601 0.33461099816486239 29.029202451463789 1.5444890484213831 9.5987173840403521 12.889993892516939 0.23990399995818634 2.4810687284916626
leaf_count=76 115 22 65 4862 183 1164 2506 46 482
internal_value=-0.0244998 -0.0376496 -0.0536753 -0.0416179 -0.0530645 -0.0572008 -0.0410387 -0.040166 -0.040166
internal_weight=68.7459 56.8181 12.5256 44.2925 2.13335 9.93333 42.1591 13.1299 2.59229
internal_count=9521 9445 1733 7712 298 1229 7414 2552 504
cat_boundaries=0 11 12 13 14 15 16 17 18 19
cat_threshold=0 0 0 0 0 0 0 0 0 0 8388608 1 1 1 1 1 2 4 1
is_linear=0
shrinkage=0.05


Tree=12
num_leaves=11
num_cat=10
split_feature=10 7 8 8 11 11 7 7 8 7
split_gain=5579.94 26.3144 32.2048 0.0725316 0.034149 0.000764871 6.60163e-05 5.367e-05 5.32907e-05 7.79136e-09
threshold=0 1 2 3 4 5 6 7 8 9
decision_type=1 9 1 1 1 1 9 9 1 9
left_child=5 2 -2 4 -3 6 8 -7 -1 -5
right_child=1 3 -4 9 -6 7 -8 -9 -10 -11
leaf_value=-0.056625617963350083 0.098338467651507999 0.096683520143702836 0.0092576248357481329 0.09940307450620002 0.095845777239663338 -0.056684339139676236 -0.0565909112775035 -0.056592588567711336 -0.056761649542175746 0.09940121743366917
leaf_weight=38.720456004142761 21.105864644050598 759.65360629558563 19.538329988718033 10.220172345638275 144.83910375833511 301.26294782757759 1267.4144515842199 16.829107612371445 8.8441419601440412 12.624995648860931
leaf_count=150 70 2506 68 34 478 1164 4910 65 34 42
internal_value=-0.000227814 0.0948938 0.0555158 0.0966196 0.0965494 -0.0566099 -0.0565931 -0.0566795 -0.0566509 0.099402
internal_weight=2601.05 967.982 40.6442 927.338 904.493 1633.07 1314.98 318.092 47.5646 22.8452
internal_count=9521 3198 138 3060 2984 6323 5094 1229 184 76
cat_boundaries=0 1 2 3 4 5 6 7 8 9 10
cat_threshold=2 1 1 1 1 1 1 4 2 2
is_linear=0
shrinkage=0.05


Tree=13
num_leaves=20
num_cat=19
split_feature=5 9 9 9 11 0 10 10 11 7 11 7 7 8 7 7 7 11 7
split_gain=4555.31 243.443 133.665 36.1825 30.2474 7.89827 1.43283 1.38513 0.444602 0.440701 0.0271221 0.0222727 0.00917585 0.000560033 0.000470129 0.000423788 0.000182309 2.63461e-05 1.76033e-10
threshold=0 1 2 3 4 5 6 7 8 9 10 11 12 13 14 15 16 17 18
decision_type=9 9 9 9 1 9 1 1 1 9 1 9 9 1 9 9 9 1 9
left_child=1 6 3 -2 5 -5 -1 8 9 -4 12 -10 -3 15 -12 -9 -15 -17 -18
right_child=2 10 7 4 -6 -7 -8 13 11 -11 14 -13 -14 16 -16 17 18 -19 -20
leaf_value=-0.057246296462202154 0.048906785920929535 0.11184023024528854 -0.043667573417596597 0.0022931181138179752 0.052477736263575936 -0.032509406989518631 -0.031016347029409714 -0.052392102237176323 -0.045068560748808495 -0.050207030777059895 0.1125186546048072 -0.047667261886849312 0.11321114140830879 -0.052733989868991749 0.1129564008014879 -0.052649862558802468 -0.05296887219497947 -0.052676852296853066 -0.052969190537824652
leaf_weight=22.629219233989716 25.431299731135368 425.62484836578369 26.79700143635273 29.023843139410019 15.726498171687124 49.489233791828156 6.7622454464435604 15.787644982337952 50.794234871864319 667.83964201807976 246.96236389875412 9.8429447114467603 12.566201627254484 15.552904814481735 6.2897645235061637 566.776545971632 7.8579569458961487 107.58162635564804 9.7070097774267214
leaf_count=86 101 1494 116 122 63 213 29 70 224 2932 863 43 44 68 22 2484 34 471 42
internal_value=0.000511905 0.104015 -0.0465304 0.00550354 -0.00977731 -0.0234926 -0.0382108 -0.0507507 -0.0495963 -0.0499548 0.110519 -0.0454904 0.11188 -0.0526578 0.11253 -0.0526482 -0.0528587 -0.0526542 -0.052969
internal_weight=2319.04 720.835 1598.21 119.671 94.2396 78.5131 29.3915 1478.54 755.274 694.637 691.443 60.6372 438.191 723.264 253.252 690.146 33.1179 674.358 17.565
internal_count=9521 2538 6983 499 398 335 115 6484 3315 3048 2423 267 1538 3169 885 3025 144 2955 76
cat_boundaries=0 1 4 7 9 10 11 12 13 14 15 16 17 18 19 20 21 22 23 24
cat_threshold=17664 4096 4 2147483648 554041344 152089 2097286 537264128 20488 1 8 2 2 1 1 1 4 4 1 4 1 1 1 2
is_linear=0
shrinkage=0.05


Tree=14
num_leaves=14
num_cat=13
split_feature=9 4 11 10 11 7 8 8 7 7 7 11 7
split_gain=1347.81 11.8034 8.34217 0.0679 0.0483097 0.00951143 2.86564e-07 7.92093e-08 6.13617e-08 2.71892e-08 9.78714e-09 1.14859e-10 2.04281e-14
threshold=0 1 2 3 4 5 6 7 8 9 10 11 12
decision_type=9 9 1 1 1 9 1 1 9 9 9 1 9
left_child=-1 2 -2 4 5 -3 -7 8 -5 -9 -6 -10 -11
right_child=1 3 -4 7 10 6 -8 9 11 12 -12 -13 -14
leaf_value=0.38925563531528651 0.16959237689334072 -0.0380592305361067 -0.040671941835037188 -0.040647349963609046 -0.040661740275317396 -0.040701183585711787 -0.04066516421579907 -0.040661112841094298 -0.040658022312687378 -0.040670809857783631 -0.040657232535436856 -0.040658212079461749 -0.040670821402749413
leaf_weight=10.684660084545612 2.3763672076165676 94.988166615366936 0.58855589479208026 1.3701840043067932 22.592862887308002 2.8689500615000725 0.68380301073193495 1.3581470679491758 49.716310571879148 0.68941845372319221 1.2719334643334175 9.4962443169206363 0.85165007784962565
leaf_count=194 99 4641 29 70 1133 138 34 68 2498 34 64 477 42
internal_value=0.0056105 -0.0348606 0.0292386 -0.0373234 -0.0386431 -0.0381542 -0.0406943 -0.0406582 -0.0406578 -0.0406663 -0.0406615 -0.0406581 -0.0406708
internal_weight=199.537 188.853 2.96492 185.888 122.406 98.5409 3.55275 63.482 60.5827 2.89922 23.8648 59.2126 1.54107
internal_count=9521 9327 128 9199 6010 4813 172 3189 3045 144 1197 2975 76
cat_boundaries=0 3 28 29 30 31 32 33 34 35 36 37 38 39
cat_threshold=4608 4 262144 0 0 0 0 0 0 0 1077936128 0 0 0 0 0 0 0 0 0 0 32768 0 8388608 0 0 0 2097152 1 2 1 4 2 1 1 1 4 1 2
is_linear=0
shrinkage=0.05


Tree=15
num_leaves=17
num_cat=16
split_feature=5 9 7 9 7 11 8 7 11 7 7 11 7 8 11 7
split_gain=3606.42 910.596 57.7986 8.21944 1.40218 0.729762 0.723849 0.522674 0.43186 0.430754 0.120548 0.0250923 0.0108159 0.00280858 0.00136116 8.46089e-10
threshold=0 1 2 3 4 5 6 7 8 9 10 11 12 13 14 15
decision_type=9 9 9 9 9 1 1 9 1 9 9 1 9 1 1 9
left_child=1 2 -1 4 -3 10 11 8 -8 -7 -5 12 -2 14 -4 -15
right_child=6 3 13 5 -6 9 7 -9 -10 -11 -12 -13 -14 15 -16 -17
leaf_value=0.03243834964366251 -0.056470991527317466 0.033812637703067208 -0.057089442647621252 0.078647444710340408 0.010349429287127194 0.072754829094296217 -0.051950283582839277 -0.05795091155654894 -0.035845193648490835 0.082632838788292556 0.081754506464428764 -0.056003226818979762 -0.057578730497860081 -0.05795902954297312 -0.05750827609255902 -0.057958180503752711
leaf_weight=20.287830621004105 997.03987354040146 28.354333013296127 123.05070802569389 966.8118429929018 8.2115582823753339 80.127110719680786 7.3200761675834656 8.5523599386215228 9.6498725116252917 12.799422830343245 32.259185463190079 346.99810594320297 22.533848464488983 6.1480654180049878 23.028833478689194 5.6133500039577484
leaf_count=68 3736 92 465 3117 27 261 27 32 34 41 104 1301 85 23 87 21
internal_value=-8.63651e-06 0.0594162 -0.0445058 0.0760657 0.0224138 0.0776426 -0.0558137 -0.0478718 -0.0427922 0.0741154 0.0787478 -0.0563705 -0.0564955 -0.0572153 -0.0571555 -0.0579586
internal_weight=2698.79 1306.69 178.129 1128.56 36.5659 1092 1392.09 25.5223 16.9699 92.9265 999.071 1366.57 1019.57 157.841 146.08 11.7614
internal_count=9521 4306 664 3642 119 3523 5215 93 61 302 3221 5122 3821 596 552 44
cat_boundaries=0 1 4 5 8 9 10 11 12 13 14 15 16 17 18 19 20
cat_threshold=3150016 0 0 2147483648 1 537133056 147464 262272 4 1 1 1 2 4 4 1 4 1 1 4
is_linear=0
shrinkage=0.05


Tree=16
num_leaves=13
num_cat=12
split_feature=2 11 10 8 10 7 10 7 7 7 7 7
split_gain=32.8699 0.534427 0.2164 0.114995 0.0635211 0.0363415 0.00343847 6.65884e-05 6.08168e-10 3.16078e-10 7.15272e-12 4.03289e-14
threshold=0 1 2 3 4 5 6 7 8 9 10 11
decision_type=9 1 1 1 1 9 1 9 9 9 9 9
left_child=-1 3 5 6 -5 -3 7 -2 -8 -4 -6 -12
right_child=1 2 9 4 10 -7 8 -9 -10 -11 11 -13
leaf_value=0.037361942933808491 -0.041163046439099162 -0.040158148350477707 -0.040155197110818594 -0.05946456075044057 -0.040160701870743075 -0.057340007228459861 -0.040155269269607365 -0.040156922053011468 -0.040157760352893486 -0.040157995563898888 -0.04016101941310829 -0.040161055444860538
leaf_weight=11.893261461053044 27.84194655995816 0.31834911881014705 0.10540634486824274 1.3272462217137218 0.31320891575887799 9.2464437331072968 0.25004384806379676 0.16542771738022821 12.174676349386569 2.3610890731215455 0.13976558391004801 0.17474363185465214
leaf_count=76 4861 65 22 150 63 1164 52 34 2489 482 28 35
internal_value=-0.0238244 -0.0372225 -0.0533629 -0.0414227 -0.0532664 -0.0567681 -0.04085 -0.0411571 -0.0401577 -0.0401579 -0.0401609 -0.040161
internal_weight=66.3116 54.4183 12.0313 42.3871 1.95496 9.56479 40.4321 28.0074 12.4247 2.4665 0.627718 0.314509
internal_count=9521 9445 1733 7712 276 1229 7436 4895 2541 504 126 63
cat_boundaries=0 11 12 13 14 15 16 17 18 19 20 21 22
cat_threshold=0 0 0 0 0 0 0 0 0 0 8388608 1 2 1 2 1 2 4 1 1 1 2
is_linear=0
shrinkage=0.05


Tree=17
num_leaves=11
num_cat=10
split_feature=9 7 8 8 11 11 7 7 8 7
split_gain=4866.11 21.8122 27.9643 0.0482018 0.0315146 0.000889491 0.000123903 7.41866e-05 4.48824e-05 6.82191e-09
threshold=0 1 2 3 4 5 6 7 8 9
decision_type=9 9 1 1 1 1 9 9 1 9
left_child=1 2 -1 4 -3 7 -7 8 -2 -5
right_child=5 3 -4 9 -6 6 -8 -9 -10 -11
leaf_value=0.090764379317676697 -0.055214645096668902 0.08865959519825084 0.0082850128265152239 0.090830282646736982 0.087863135836770939 -0.055278307053459402 -0.055136066533679834 -0.055173475756096081 -0.055341881155485009 0.090828566123727902
leaf_weight=21.544795244932175 37.245124444365501 775.55229517817497 19.649178862571716 10.473940193653107 147.88392293453217 290.04301533102989 16.163204774260521 1218.8923843801022 8.5156875848770124 12.938449770212173
leaf_count=70 150 2506 68 34 478 1164 65 4910 34 42
internal_value=-0.000275125 0.0861672 0.0514224 0.0885889 0.088532 -0.0548452 -0.0552708 -0.0551758 -0.0552383 0.0908293
internal_weight=2558.9 988.043 41.194 946.849 923.436 1570.86 306.206 1264.65 45.7608 23.4124
internal_count=9521 3198 138 3060 2984 6323 1229 5094 184 76
cat_boundaries=0 3 4 5 6 7 8 9 10 11 12
cat_threshold=0 0 2147483648 1 1 1 1 1 4 1 2 2
is_linear=0
shrinkage=0.05


Tree=18
num_leaves=20
num_cat=19
split_feature=5 9 9 9 11 0 10 11 7 10 11 7 7 8 7 7 11 7 7
split_gain=3949.5 184.796 132.487 30.5949 37.1351 7.88701 1.38038 0.376276 0.438539 0.146424 0.029377 0.0136286 0.0113117 0.00121594 0.000689423 0.000641368 3.46299e-05 4.20759e-06 1.63087e-10
threshold=0 1 2 3 4 5 6 7 8 9 10 11 12 13 14 15 16 17 18
decision_type=9 9 9 9 1 9 1 1 9 1 1 9 9 1 9 9 1 9 9
left_child=1 9 3 -2 5 -5 7 8 -4 -1 12 -9 -3 15 -12 -8 -17 -15 -19
right_child=2 10 6 4 -6 -7 13 11 -10 -11 14 -13 -14 17 -16 16 -18 18 -20
leaf_value=-0.037938877056631022 0.04606927366617658 0.10052033609443976 -0.042510943225269916 0.0030024726243238408 0.067090605522392446 -0.031475559069416841 -0.0513316146802145 -0.044470155974347468 -0.049151862307865425 -0.0295535282951928 0.1012145403654424 -0.046535768841259519 0.10201062158294819 -0.051989920570948978 0.1017336316118763 -0.051657003707931373 -0.051688624932252507 -0.051953358982501446 -0.051953672027172382
leaf_weight=25.27156001329422 26.125781446695328 444.48272910714149 25.862946555018425 28.689430400729179 13.686696439981459 48.127207711338997 15.026823952794075 51.513582780957222 640.71808726340532 6.5567795932292965 254.68026480078697 9.4502817988395673 13.108407676219938 15.047193378210068 6.5612322688102713 542.56145036220551 103.02408148348331 7.5285547971725464 9.3001113086938876
leaf_count=96 101 1494 116 122 53 213 70 234 2932 29 853 43 44 68 22 2484 471 34 42
internal_value=0.00047015 0.0937462 -0.0454098 0.00686347 -0.00791191 -0.0223054 -0.0497211 -0.0485503 -0.0488942 -0.0275543 0.0994214 -0.0447904 0.100563 -0.0516691 0.101228 -0.0516545 -0.051662 -0.0519707 -0.0519535
internal_weight=2287.32 750.661 1536.66 116.629 90.5033 76.8166 1420.03 727.545 666.581 31.8283 718.833 60.9639 457.591 692.488 261.241 660.612 645.586 31.8759 16.8287
internal_count=9521 2538 6983 489 388 335 6494 3325 3048 125 2413 277 1538 3169 875 3025 2955 144 76
cat_boundaries=0 1 4 7 9 10 11 12 13 14 15 16 17 18 19 20 21 22 23 24
cat_threshold=17664 4096 5 2147483648 554041344 152088 2097286 537264128 20488 1 8 2 1 1 2 1 4 4 1 4 1 1 1 2
is_linear=0
shrinkage=0.05


Tree=19
num_leaves=15
num_cat=14
split_feature=4 11 10 2 11 10 7 11 11 8 7 11 7 7
split_gain=789.916 147.047 104.133 5.03546 4.14707 0.843033 1.18763 0.722432 0.38995 1.69637e-07 1.15051e-07 4.64432e-10 3.05368e-10 2.76446e-14
threshold=0 1 2 3 4 5 6 7 8 9 10 11 12 13
decision_type=9 1 1 9 1 1 9 1 1 1 9 1 9 9
left_child=1 2 -1 4 -2 6 7 -5 -8 10 -7 -12 -11 -14
right_child=3 -3 -4 5 -6 9 8 -9 -10 12 11 -13 13 -15
leaf_value=0.4595105456741097 0.081970748822440098 -0.040635765604625819 -0.040637502015612254 0.0036516773363909371 -0.040645604445703629 -0.04061057190797928 -0.032905227273786836 -0.040680718326390308 -0.040640767740349422 -0.040638710027121522 -0.040625827921478869 -0.040625429552943709 -0.040637645743331369 -0.040637659718393983
leaf_weight=15.92958877235651 3.2423969749361277 1.8664653468877102 1.1134587377309806 3.3654631339013577 0.87585351429879654 1.2751099951565266 89.972794362343848 1.2641332820057867 19.894049346446991 1.3119034040719271 46.089864540845156 8.6967652440071088 0.63709867931902409 0.79156363382935435
leaf_count=293 126 97 58 149 45 69 4545 65 1041 68 2432 459 33 41
internal_value=0.00627413 0.249009 0.426835 -0.0318378 0.0163039 -0.0338089 -0.0332606 -0.00845349 -0.0343059 -0.040626 -0.0406254 -0.0406258 -0.0406382 -0.0406377
internal_weight=196.327 18.9095 17.043 177.417 4.11825 173.299 114.496 4.6296 109.867 58.8023 56.0617 54.7866 2.74057 1.42866
internal_count=9521 448 351 9073 171 8902 5800 214 5586 3102 2960 2891 142 74
cat_boundaries=0 43 44 45 59 60 61 62 63 64 65 66 67 68 69
cat_threshold=0 2 0 0 0 0 0 1091567616 16 16777216 0 0 0 0 0 0 0 0 0 0 0 131072 1536 0 2097152 0 0 0 0 0 0 0 0 0 0 0 0 10881 0 268435456 0 16778240 2155876352 1 2 16908288 0 67108864 0 1048576 256 65536 0 0 0 36864 0 65536 4194304 1 2 1 1 1 1 1 1 1 2
is_linear=0
shrinkage=0.05


Tree=20
num_leaves=23
num_cat=22
split_feature=9 3 4 10 7 10 11 2 11 11 7 8 7 11 7 7 7 8 11 8 11 7
split_gain=2721.96 794.982 233.364 70.8078 74.5861 22.6578 10.2449 8.75031 7.7614 0.929634 0.245518 0.911046 0.129214 0.125803 0.120105 0.0638048 0.0616427 0.0609252 0.0209119 0.00166429 0.000512288 1.22775e-08
threshold=0 1 2 3 4 5 6 7 8 9 10 11 12 13 14 15 16 17 18 19 20 21
decision_type=9 9 9 1 9 1 1 9 1 1 9 1 9 1 9 9 9 1 1 1 1 9
left_child=2 13 3 18 -5 6 10 9 -9 15 -4 -12 17 -2 -11 -3 -8 -7 -1 20 -14 -21
right_child=1 7 5 4 -6 12 16 8 -10 14 11 -13 19 -15 -16 -17 -18 -19 -20 21 -22 -23
leaf_value=0.07130649994677439 -0.054429699845343217 0.079390596592004314 -0.038087963245920446 0.086576356910464641 -0.055819171644636068 -0.057796844618579479 -0.051692814852468939 0.041191031198784978 0.077414485556076496 0.085188815643027285 -0.055936703065844307 -0.034204451574711713 -0.05575848275191745 -0.050928343715586501 0.078449283845634765 0.077183606692494869 -0.056948349765929475 -0.063109251030851118 0.069013328516016423 -0.056249496046076909 -0.055872526808995286 -0.056252052863460661
leaf_weight=40.235611379146576 111.99323534965515 34.140298157930374 384.17654228210449 12.948966383934021 31.730837881565094 17.862180083990097 211.5526115000248 100.94681757688522 17.32573190331459 44.010663896799088 8.6587200164794922 10.884772956371307 609.35468459129333 33.276745319366455 7.779066175222396 803.35253794491291 5.7305394113063803 7.7337641716003445 13.204296767711638 8.473962277173996 117.45114383101463 10.528954923152924
leaf_count=129 433 110 1438 43 125 68 811 336 56 144 34 37 2399 128 25 2577 22 27 43 33 462 41
internal_value=1.32519e-05 0.0574329 -0.0444839 0.0289514 -0.0145505 -0.0498283 -0.0430775 0.0732883 0.0428725 0.0768118 -0.0383661 -0.0438329 -0.0559089 -0.0501738 0.0841765 0.0772736 -0.0518314 -0.059402 0.0707399 -0.055789 -0.0557769 -0.0562509
internal_weight=2643.35 1152.83 1490.53 98.1197 44.6798 1392.41 621.003 1007.56 118.273 889.283 403.72 19.5435 771.405 145.27 51.7897 837.493 217.283 25.5959 53.4399 745.809 726.806 19.0029
internal_count=9521 3809 5712 340 168 5372 2342 3248 392 2856 1509 71 3030 561 169 2687 833 95 172 2935 2861 74
cat_boundaries=0 3 4 43 44 45 46 47 60 61 62 63 64 65 66 67 68 69 70 71 72 73 74
cat_threshold=561501696 2147487804 3221226755 2 0 67108864 0 0 0 0 0 0 131072 0 0 0 0 0 0 0 0 320 40960 0 1073741824 8 0 268435456 4194305 24576 0 0 0 0 0 0 0 536871425 65536 0 64 0 512 2 1 2 1 524289 768 0 0 0 0 0 2147483648 0 0 318767104 0 16 1 1 4 1 1 1 4 1 4 1 1 1 1 2
is_linear=0
shrinkage=0.05


Tree=21
num_leaves=10
num_cat=9
split_feature=2 11 10 7 10 7 10 7 7
split_gain=31.8073 0.501804 0.194592 0.0996657 0.0427365 0.0326001 0.00167187 4.61291e-10 2.42889e-10
threshold=0 1 2 3 4 5 6 7 8
decision_type=9 1 1 9 1 9 1 9 9
left_child=-1 3 8 4 -2 -4 -5 -8 -3
right_child=1 2 5 6 -6 -7 7 -9 -10
leaf_value=0.036872010371305969 -0.040151249786830767 -0.040147340132901381 -0.04015029866653929 -0.040863541695451623 -0.05668271583160267 -0.056845617597206577 -0.040149616984065578 -0.040151944995779836 -0.040149861566764027
leaf_weight=11.858571943826973 0.53761678142473102 0.099764127284288406 0.30232630204409361 26.655214135535061 1.4329892885871229 8.9009090922772849 11.629675564821808 0.21675293100997706 2.2404419430531548
leaf_count=76 115 22 65 4862 183 1164 2506 46 482
internal_value=-0.023073 -0.0367607 -0.0530236 -0.0412052 -0.0521726 -0.0562972 -0.0406439 -0.0401497 -0.0401498
internal_weight=63.8743 52.0157 11.5434 40.4722 1.97061 9.20324 38.5016 11.8464 2.34021
internal_count=9521 9445 1733 7712 298 1229 7414 2552 504
cat_boundaries=0 11 12 13 14 15 16 17 18 19
cat_threshold=0 0 0 0 0 0 0 0 0 0 8388608 1 1 1 1 1 2 4 1
is_linear=0
shrinkage=0.05


Tree=22
num_leaves=11
num_cat=10
split_feature=10 7 8 8 11 11 7 8 7 7
split_gain=4347.36 18.5566 24.6035 0.0324551 0.0294174 0.00145025 0.000176919 0.000164914 1.14662e-06 2.49428e-08
threshold=0 1 2 3 4 5 6 7 8 9
decision_type=1 9 1 1 1 1 9 1 9 9
left_child=5 2 -2 4 -3 7 -7 8 -1 -5
right_child=1 3 -4 9 -6 6 -8 -9 -10 -11
leaf_value=-0.053878426624599518 0.084614386495986987 0.08218767200194381 0.0075183937948096738 0.083940533922541763 0.081421672907160944 -0.054014446726388665 -0.053840792166030431 -0.05398692919691659 -0.053859575025233142 0.083937271505499664
leaf_weight=1168.3086452335119 21.763612240552902 782.53581607341766 19.729725301265717 10.601584285497665 149.24427455663681 278.53911289572716 15.482260853052138 36.005500808358192 8.1221872866153699 13.096120834350586
leaf_count=4909 70 2506 68 34 478 1164 65 151 34 42
internal_value=-0.000304026 0.0806899 0.0479559 0.0821115 0.082065 -0.0539057 -0.0540053 -0.0538815 -0.0538783 0.0839387
internal_weight=2503.43 996.971 41.4933 955.478 931.78 1506.46 294.021 1212.44 1176.43 23.6977
internal_count=9521 3198 138 3060 2984 6323 1229 5094 4943 76
cat_boundaries=0 1 2 3 4 5 6 7 8 9 10
cat_threshold=2 1 1 1 1 1 4 1 4 2
is_linear=0
shrinkage=0.05


Tree=23
num_leaves=20
num_cat=19
split_feature=5 9 9 11 9 9 10 11 7 10 11 7 7 8 7 7 7 11 7
split_gain=3457.25 158.031 127.756 26.5417 31.2027 4.17074 1.40092 0.365149 0.432774 0.180346 0.0370308 0.0245893 0.0124522 0.00194442 0.000766975 0.000575684 0.000222133 3.81643e-05 5.39973e-10
threshold=0 1 2 3 4 5 6 7 8 9 10 11 12 13 14 15 16 17 18
decision_type=9 9 9 1 9 9 1 1 9 1 1 9 9 1 9 9 9 1 9
left_child=1 9 3 4 5 -2 7 8 -4 -1 11 -3 -9 14 -8 -12 -15 -16 -18
right_child=2 10 6 -5 -6 -7 13 12 -10 -11 15 -13 -14 16 17 -17 18 -19 -20
leaf_value=-0.037511458118170339 -0.0038164036632769567 0.091629330329527678 -0.041427892093161417 0.06358746120347944 0.032628635090811417 -0.033928771876689079 -0.050367644653403668 -0.043455146612651242 -0.048146153972937346 -0.028071116877603448 0.092414346172188994 0.093798564451201605 -0.045470815682888792 -0.051279831581553574 -0.050733050998540877 0.092882195507297899 -0.051009779113304843 -0.05076702245564213 -0.051010361853834951
leaf_weight=24.921635955572128 33.556885972619057 454.07779625058174 24.946353986859322 17.919451579451561 31.736870512366295 32.729267254471779 14.266323447227478 49.738567799329758 613.15762818604708 6.3476386517286327 264.68133527040482 13.450893104076384 9.0573843121528608 14.531040042638779 517.91870002448559 6.7427525520324698 7.1931745111942291 98.377662375569344 8.8859543800354022
leaf_count=96 148 1484 116 67 125 149 70 234 2932 29 863 44 43 68 2484 22 34 471 42
internal_value=0.000465933 0.0856706 -0.0443368 0.0070293 -0.00259291 -0.0211832 -0.0487414 -0.0475361 -0.0478835 -0.02697 0.0907336 0.0916917 -0.0437657 -0.050749 -0.0507301 0.092426 -0.0511381 -0.0507385 -0.0510101
internal_weight=2244.24 770.222 1474.02 115.942 98.023 66.2862 1358.07 696.9 638.104 31.2693 738.953 467.529 58.796 661.173 630.563 271.424 30.6102 616.296 16.0791
internal_count=9521 2538 6983 489 422 297 6494 3325 3048 125 2413 1528 277 3169 3025 885 144 2955 76
cat_boundaries=0 1 4 7 8 11 14 15 16 17 18 19 20 21 22 23 24 25 26 27
cat_threshold=17664 4096 1028 2147483648 554041344 152088 2097286 1 16777216 131088 2097154 0 0 2097152 2 1 1 2 1 4 4 1 1 4 1 1 2
is_linear=0
shrinkage=0.05


Tree=24
num_leaves=20
num_cat=19
split_feature=4 11 4 10 11 6 8 10 11 10 11 7 7 8 7 7 11 11 7
split_gain=568.777 65.055 6.89425 3.52255 3.97323 1.17026 15.3616 4.85835 9.25008 0.187633 0.124913 0.0271708 8.42546e-07 2.48456e-07 8.4562e-08 2.1072e-08 1.15359e-09 3.64804e-10 9.65894e-15
threshold=0 1 2 3 4 5 6 7 8 9 10 11 12 13 14 15 16 17 18
decision_type=9 1 9 1 1 9 1 1 1 1 1 9 9 1 9 9 1 1 9
left_child=1 -1 3 4 -2 9 7 8 -7 10 11 -4 -12 14 -11 -15 -16 -9 -17
right_child=2 -3 5 -5 -6 6 -8 17 -10 13 12 -13 -14 15 16 18 -18 -19 -20
leaf_value=0.27225322270286662 0.1060580191122639 -0.040605033903715004 -0.035948502471429222 -0.040604066270369527 -0.040597977578944677 0.13340807383803394 0.2937137786900052 -0.040591324137411837 -0.040624936470700763 -0.040579490754228245 -0.04061077925183168 -0.040783611661486786 -0.040654044266933927 -0.040613715105382482 -0.040593271482910885 -0.04060450673645797 -0.040592594794263213 -0.04059251604269095 -0.040604515586158324
leaf_weight=25.270838618278503 3.0536908730864525 1.7785380762070442 84.764347966760397 0.67491450533270825 0.54412415437400374 1.4349211435765028 0.44705016538500775 3.7846752740442735 1.631811548024416 1.1583425682038069 17.512734685093164 3.0086925663053981 1.202547919005158 1.2235818486660719 39.854298627004027 0.53164216317236423 7.4802717324346295 0.77311160601675499 0.73331305384635836
leaf_count=351 122 97 4457 37 30 72 11 211 87 66 963 143 65 66 2215 29 416 43 40
internal_value=0.00586287 0.183751 -0.0314417 0.0192236 0.0838781 -0.03377 0.0039529 -0.00785226 0.0408049 -0.0358242 -0.036905 -0.0361142 -0.0406136 -0.0405936 -0.0405928 -0.040609 -0.0405932 -0.0405915 -0.0406045
internal_weight=196.863 27.0494 169.814 4.27273 3.59782 165.541 8.07157 7.62452 3.06673 157.47 106.488 87.773 18.7153 50.9814 48.4929 2.48854 47.3346 4.55779 1.26496
internal_count=9521 448 9073 189 152 8884 424 413 159 8460 5628 4600 1028 2832 2697 135 2631 254 69
cat_boundaries=0 43 44 86 87 88 91 92 93 94 95 96 97 98 99 100 101 102 103 104
cat_threshold=0 2 0 0 0 0 0 1091567616 16 16777216 0 0 0 0 0 0 0 0 0 0 0 131072 1536 0 2097152 0 0 0 0 0 0 0 0 0 0 0 0 10881 0 268435456 0 16778240 2155876352 1 536870912 0 0 0 0 0 0 0 0 0 0 0 0 0 0 0 0 0 32768 0 8388608 262400 0 0 0 0 0 0 0 0 0 0 0 0 0 0 0 0 0 32 0 64 2 1 537413632 537919520 384 1 2 1 2 1 4 4 1 1 1 1 1 2
is_linear=0
shrinkage=0.05


Tree=25
num_leaves=22
num_cat=21
split_feature=5 10 7 2 9 0 11 10 8 11 11 11 7 11 7 7 8 8 11 11 7
split_gain=2906.69 690.123 39.6381 32.7809 17.7033 5.78778 9.9759 0.901297 2.20177 2.91642 0.631108 0.397734 0.302152 0.100919 0.0602457 0.024218 0.0164914 0.00199611 0.00173957 5.45142e-05 9.77993e-06
threshold=0 1 2 3 4 5 6 7 8 9 10 11 12 13 14 15 16 17 18 19 20
decision_type=9 1 9 9 9 9 1 1 1 1 1 1 9 1 9 9 1 1 1 1 9
left_child=1 3 -3 5 -5 6 -1 8 13 -10 -6 12 -7 15 -13 -2 19 18 -4 20 -9
right_child=7 2 17 4 10 11 -8 16 9 -11 -12 14 -14 -15 -16 -17 -18 -19 -20 -21 -22
leaf_value=0.049753330732907157 -0.051648500672310776 0.020739870385738657 -0.053906861254364363 0.0016326619653690103 0.049364800601025174 0.067879780033144224 -0.0064809119491211669 -0.054412146502906648 -0.0068075829014062244 -0.055164756079211556 0.060547269977573683 0.076954091962303933 0.072559016108704508 -0.05300153340256486 0.072789459880901256 -0.054344392124417142 -0.056189326868749861 -0.054737748123907221 -0.054398486627200086 -0.054404610410948739 -0.054363286959746765
leaf_weight=17.631296962499619 418.27248457074165 20.336347877979279 106.48131112754345 40.949111267924309 73.23927891254425 35.924097687005997 14.269426494836809 10.457766756415367 6.2451576590538007 6.226658433675766 15.243432998657225 58.054683536291122 870.10662880539894 229.96422947943211 10.21126866340637 8.4998409450054151 12.730804994702337 9.5916179269552213 21.652258828282356 100.4947903752327 495.96685414016247
leaf_count=57 1659 68 438 143 235 116 46 43 22 25 49 189 2810 925 33 35 50 39 89 413 2041
internal_value=0.000315538 0.053056 -0.0444205 0.0670903 0.0331458 0.0704274 0.0187285 -0.0526259 -0.0517619 -0.0309503 0.0460831 0.0719127 0.0723735 -0.0521572 0.0763311 -0.0517022 -0.0544083 -0.054042 -0.0539899 -0.054371 -0.0543643
internal_weight=2582.55 1293.69 158.062 1135.63 129.432 1006.2 31.9007 1288.86 669.208 12.4718 88.4827 974.297 906.031 656.737 68.266 426.772 619.65 137.725 128.134 606.919 506.425
internal_count=9525 4312 634 3678 427 3251 103 5213 2666 47 284 3148 2926 2619 222 1694 2547 566 527 2497 2084
cat_boundaries=0 1 2 3 16 19 20 21 22 23 24 25 26 27 28 29 30 31 32 33 34 35
cat_threshold=3150016 2 1 524289 768 0 0 0 0 0 2147483648 0 0 318767104 0 16 262144 128 2097280 8192 1 2 1 1 1 1 1 1 4 4 1 1 1 1 1
is_linear=0
shrinkage=0.05


Tree=26
num_leaves=13
num_cat=12
split_feature=2 11 10 8 7 10 10 7 7 7 7 7
split_gain=29.4012 0.505221 0.167193 0.0310526 0.0274521 0.0179161 7.05546e-05 1.25735e-06 1.1449e-09 9.07943e-10 3.23612e-11 1.96232e-13
threshold=0 1 2 3 4 5 6 7 8 9 10 11
decision_type=9 1 1 1 9 1 1 9 9 9 9 9
left_child=-1 3 10 6 -4 -5 7 -2 -8 -7 -3 -11
right_child=1 2 4 5 -6 9 8 -9 -10 11 -12 -13
leaf_value=0.035547839155864056 -0.039991036081481822 -0.040141825104968748 -0.040140844422816263 -0.051477750563717777 -0.055819807463959772 -0.040148716028223869 -0.040137904339062752 -0.040136844138775128 -0.040141497198669385 -0.04014460563172749 -0.040142689957961095 -0.04014468961653906
leaf_weight=11.519696861505508 27.499954176601022 2.1563560324721021 0.28837961796671152 0.95792593248188496 8.7496524204034323 0.27041944302618504 0.22638040944002569 0.14865295263007539 10.796666391193863 0.13907775562256575 0.11387569177895818 0.13916035927832016
leaf_count=80 4828 490 66 156 1211 59 53 35 2459 31 26 31
internal_value=-0.0229449 -0.0359534 -0.0522725 -0.0403088 -0.0553195 -0.0473513 -0.0400345 -0.0399918 -0.0401414 -0.0401467 -0.0401419 -0.0401446
internal_weight=63.0062 51.4865 11.3083 40.1782 9.03803 1.50658 38.6717 27.6486 11.023 0.548658 2.27023 0.278238
internal_count=9525 9445 1793 7652 1277 277 7375 4863 2512 121 516 62
cat_boundaries=0 11 12 13 14 15 16 17 18 19 20 21 22
cat_threshold=0 0 0 0 0 0 0 0 0 0 8388608 1 1 1 1 2 2 4 1 1 4 2
is_linear=0
shrinkage=0.05


Tree=27
num_leaves=11
num_cat=10
split_feature=10 8 7 7 11 11 8 7 7 7
split_gain=3874.68 12.7385 17.577 0.0601565 0.0273783 0.000956852 0.00105756 0.000774969 7.84912e-05 5.87684e-07
threshold=0 1 2 3 4 5 6 7 8 9
decision_type=1 1 9 9 1 1 1 9 9 9
left_child=5 3 -3 -2 -5 6 8 -7 -1 -4
right_child=1 2 9 4 -6 7 -8 -9 -10 -11
leaf_value=-0.05271308863718293 0.079387130567838582 0.012886240069406557 0.078321787579531413 0.07685225102464377 0.07612313652223264 -0.052840733733961587 -0.052987006469333367 -0.052471099866037756 -0.052555467527471193 0.07830561611260739
leaf_weight=1109.3837356045842 21.816056907176971 18.88474640250206 11.557172864675522 773.4379671216011 154.46553260087967 277.42690569162369 36.079087764024734 14.943980455398558 7.9549071192741385 10.932370066642761
leaf_count=4875 70 65 37 2479 495 1211 157 66 35 35
internal_value=-0.000540464 0.0756087 0.0484503 0.0767919 0.0767309 -0.052741 -0.0527206 -0.0528218 -0.052712 0.0783139
internal_weight=2436.88 991.094 41.3743 949.72 927.903 1445.79 1153.42 292.371 1117.34 22.4895
internal_count=9525 3181 137 3044 2974 6344 5067 1277 4910 72
cat_boundaries=0 1 2 3 4 5 6 7 8 9 10
cat_threshold=2 1 1 1 1 1 1 4 4 2
is_linear=0
shrinkage=0.05


Tree=28
num_leaves=23
num_cat=22
split_feature=5 9 9 11 2 11 7 3 11 10 7 10 11 11 7 11 8 7 7 7 11 7
split_gain=3055.85 115.673 104.443 27.8929 24.0161 23.8246 11.9352 9.68342 24.193 1.13102 0.668645 0.41967 0.0637237 0.0320165 0.0303838 0.00798295 0.00259732 0.000841881 0.000679531 0.000447192 5.51892e-05 1.0351e-08
threshold=0 1 2 3 4 5 6 7 8 9 10 11 12 13 14 15 16 17 18 19 20 21
decision_type=9 9 9 1 9 1 9 9 1 1 9 1 1 1 9 1 1 9 9 9 1 9
left_child=2 3 5 4 6 11 -2 8 -3 10 12 -1 -9 14 -4 -12 17 -11 -18 -15 -19 -20
right_child=1 7 13 -5 -6 -7 -8 9 -10 16 15 -13 -14 19 -16 -17 18 20 21 -21 -22 -23
leaf_value=-0.034807769290995813 -0.031261592119309504 0.092139491128240159 0.084626318809665965 0.075172954609533826 0.027984521043630618 0.0719932128918742 0.048728792435990861 -0.038767709475552845 -0.029118591545498746 -0.049487409150851695 -0.047351336331643727 -0.051015481265419639 -0.043850696808612685 0.085361888538280542 0.087019835519205044 -0.046699556146392929 -0.050628079565757211 -0.049879574687701038 -0.050132796905740878 0.08574640726493421 -0.049920891566856626 -0.050135468359540275
leaf_weight=22.257164880633354 49.047343090176582 5.134623646736145 452.64664477109909 14.095360308885573 34.005550935864449 6.0528136491775504 5.1532707810401908 25.039758577942848 20.683407932519916 13.52484755218029 576.68975663930178 4.8674033284187344 8.180401146411894 272.58192437887192 13.659058749675749 51.145110011100769 13.37852980196476 486.4392109811306 7.4585864692926407 7.7770842909812918 96.928840532898903 7.0565337985754013
leaf_count=87 218 18 1457 52 141 22 20 121 89 70 2896 23 41 876 44 251 65 2450 37 25 487 35
internal_value=0.000693042 -0.0430642 0.0795629 0.00898366 -0.000574916 -0.0136014 -0.0199715 -0.0471609 -0.00360629 -0.0480008 -0.0469325 -0.0377162 -0.0400194 0.0838276 0.0846964 -0.0472982 -0.0498994 -0.0498774 -0.050371 0.0853726 -0.0498864 -0.0501341
internal_weight=2193.8 1413.96 779.842 102.302 88.2062 33.1774 54.2006 1311.66 25.818 1285.84 661.055 27.1246 33.2202 746.665 466.306 627.835 624.787 596.893 27.8937 280.359 583.368 14.5151
internal_count=9525 6991 2534 431 379 132 238 6560 107 6453 3309 110 162 2402 1501 3147 3144 3007 137 901 2937 72
cat_boundaries=0 1 4 7 8 21 22 23 24 25 26 27 28 29 30 31 32 33 34 35 36 37 38
cat_threshold=17664 537264128 151560 2097286 4096 1073742852 2147483648 1 0 0 0 0 0 0 0 0 0 0 0 0 16 1 4 2 2 2 1 2 1 1 4 1 1 1 1 4 1 2
is_linear=0
shrinkage=0.05


Tree=29
num_leaves=13
num_cat=12
split_feature=9 4 10 11 7 8 8 7 11 7 7 7
split_gain=579.208 6.16765 0.100192 0.0735519 0.0206561 0.000151461 5.14292e-07 2.54517e-07 1.07073e-07 7.48637e-08 2.37457e-08 7.6414e-09
threshold=0 1 2 3 4 5 6 7 8 9 10 11
decision_type=9 9 1 1 9 1 1 9 1 9 9 9
left_child=-1 -2 3 4 -3 -6 7 -4 -9 -5 -8 -12
right_child=1 2 6 9 5 -7 10 8 -10 -11 11 -13
leaf_value=0.1866368055217604 0.023125004243267088 -0.037162144363207202 -0.040541730561901218 -0.040569543867599915 -0.04128733265640834 -0.040632039294639218 -0.040593677015496904 -0.040566534463837373 -0.040560360697467525 -0.04055624500547312 -0.040587540894028114 -0.040579777683459523
leaf_weight=25.43519290164113 1.8344926685094831 86.326074821408838 1.1502558011561632 20.541476636193693 1.321588158607482 2.6498683020472527 1.1624400652945042 42.505151398479939 8.4130132105201465 1.1157140862196708 0.6552873719483614 0.61397248320281417
leaf_count=181 54 4678 70 1192 35 141 65 2477 494 66 37 35
internal_value=0.00220636 -0.0346969 -0.0366086 -0.037952 -0.0373243 -0.0408501 -0.040566 -0.040565 -0.0405655 -0.0405689 -0.0405885 -0.0405838
internal_weight=193.725 168.289 166.455 111.955 90.2975 3.97146 54.5001 52.0684 50.9182 21.6572 2.4317 1.26926
internal_count=9525 9344 9290 6112 4854 176 3178 3041 2971 1258 137 72
cat_boundaries=0 3 28 29 30 31 32 33 34 35 36 37 38
cat_threshold=4608 4 262144 0 1073741824 0 0 0 0 0 1073741824 0 0 0 0 0 0 0 0 0 0 32768 0 0 0 0 0 2097152 2 1 4 1 1 1 1 4 1 2
is_linear=0
shrinkage=0.05


Tree=30
num_leaves=19
num_cat=18
split_feature=5 9 7 2 9 0 11 8 11 7 11 11 7 7 7 11 8 11
split_gain=2606.35 581.362 37.3482 31.4474 15.7678 5.68496 8.77905 0.845382 0.631699 1.29588 0.61959 0.327189 0.27324 0.0433873 0.0125439 0.00805543 0.00177907 0.00181758
threshold=0 1 2 3 4 5 6 7 8 9 10 11 12 13 14 15 16 17
decision_type=9 9 9 9 9 9 1 1 1 9 1 1 9 9 9 1 1 1
left_child=1 2 -1 5 -5 6 -3 14 9 -9 -6 12 -7 -13 15 -2 17 -4
right_child=7 3 16 4 10 11 -8 8 -10 -11 -12 13 -14 -15 -16 -17 -18 -19
leaf_value=0.02007215110145549 -0.051764750465301462 0.046454047590697857 -0.052574846953768045 0.0011284426080575452 0.045826508548468377 0.064182175352999082 -0.0063872251856594399 -0.025161896561622689 -0.05430099598326743 -0.053350313598093647 0.056948517324340232 0.072612833604003321 0.068653889693399958 0.069052775745539627 -0.053059744224753416 -0.052059778663957681 -0.053384294155682112 -0.053089230218370136
leaf_weight=20.3545763194561 873.77696605026722 17.558662176132202 101.61750692129135 40.867987915873528 72.796777784824371 35.577007293701172 14.230992823839189 9.6962552964687347 7.7254662513732937 7.0357072800397882 15.12360832095146 57.552955120801926 858.53887683153152 10.053276002407072 21.562107145786285 314.69537478685379 9.158050522208212 20.666228771209717
leaf_count=68 3692 57 438 143 235 116 46 35 32 30 49 189 2810 33 93 1331 39 89
internal_value=0.000303538 0.0502752 -0.0402977 0.0627733 0.030656 0.0665897 0.0173434 -0.0512633 -0.0424752 -0.037015 0.0428643 0.0680223 0.068476 0.0720834 -0.0518646 -0.0518429 -0.0527121 -0.0526618
internal_weight=2508.59 1274.1 151.796 1122.3 128.788 993.512 31.7897 1234.49 24.4574 16.732 87.9204 961.722 894.116 67.6062 1210.03 1188.47 131.442 122.284
internal_count=9525 4312 634 3678 427 3251 103 5213 97 65 284 3148 2926 222 5116 5023 566 527
cat_boundaries=0 1 4 5 18 21 22 23 24 25 26 27 28 29 30 31 32 33 34
cat_threshold=3150016 0 0 2147483648 1 524289 768 0 0 0 0 0 2147483648 0 0 318767104 0 16 262144 128 2097280 8192 1 1 1 1 1 1 1 4 4 1 1 1
is_linear=0
shrinkage=0.05


Tree=31
num_leaves=12
num_cat=11
split_feature=9 10 11 7 8 7 8 7 7 11 7
split_gain=29.1053 0.399864 0.0875673 0.0241421 0.00274906 0.00420824 1.36618e-08 2.34994e-09 2.19035e-09 1.07162e-09 7.34296e-10
threshold=0 1 2 3 4 5 6 7 8 9 10
decision_type=9 1 1 9 1 9 1 9 9 1 9
left_child=-1 2 4 -4 5 -2 7 -3 -8 -9 -10
right_child=1 6 3 -5 -6 -7 8 9 10 -11 -12
leaf_value=0.02868847889491621 -0.048802110680864472 -0.040129926679333836 -0.040133041588675353 -0.055256410454107334 -0.051627695311935319 -0.040129562150680594 -0.040145296922889373 -0.040135592324172797 -0.040141590467602128 -0.040134347082130532 -0.040136714714602499
leaf_weight=16.194183511193842 21.489319584099572 0.28038810612633824 0.27248523524031043 8.3628271713387221 0.86032935767434793 0.14079371001572027 0.29023653035983443 2.0751393102109432 0.16085724206641316 10.319765770342196 0.14851363049819966
leaf_count=965 3935 70 66 1202 141 35 65 495 37 2479 35
internal_value=-0.022331 -0.0386873 -0.0504992 -0.0547792 -0.0488559 -0.0487457 -0.0401348 -0.0401345 -0.0401422 -0.0401346 -0.0401392
internal_weight=60.5948 44.4007 31.1258 8.63531 22.4904 21.6301 13.2749 12.6753 0.599607 12.3949 0.309371
internal_count=9525 8560 5379 1268 4111 3970 3181 3044 137 2974 72
cat_boundaries=0 2 3 4 5 6 7 8 9 10 11 12
cat_threshold=0 128 2 1 1 1 4 1 1 1 2 2
is_linear=0
shrinkage=0.05


Tree=32
num_leaves=7
num_cat=6
split_feature=10 8 11 11 8 8
split_gain=3466.4 11.7205 0.0160497 0.000761386 0.000867339 0.0007903
threshold=0 1 2 3 4 5
decision_type=1 1 1 1 1 1
left_child=3 2 -2 4 -1 -5
right_child=1 -3 -4 5 -6 -7
leaf_value=-0.05166328590234625 0.072432100454010107 0.045132488129150231 0.071879763832481444 -0.051783199058149057 -0.05191830063103952 -0.05140077067880873
leaf_weight=1066.4088906571269 783.00103491544724 41.322976857423782 158.07438015937805 264.99726857244968 34.418634563684464 14.234946534037588
leaf_count=4910 2533 137 511 1211 157 66
internal_value=-0.000589839 0.0711949 0.0723393 -0.05169 -0.0516713 -0.0517637
internal_weight=2362.46 982.398 941.075 1380.06 1100.83 279.232
internal_count=9525 3181 3044 6344 5067 1277
cat_boundaries=0 1 2 3 4 5 6
cat_threshold=2 1 1 1 1 1
is_linear=0
shrinkage=0.05


Tree=33
num_leaves=19
num_cat=18
split_feature=5 9 9 11 11 2 7 3 11 7 8 11 7 11 8 11 7 7
split_gain=2705.23 111.486 91.1581 23.8414 21.6024 21.4385 10.9475 8.87307 21.255 0.374754 0.170823 0.0372994 0.0310512 0.0159734 0.0146259 0.00530339 0.000287974 8.63601e-08
threshold=0 1 2 3 4 5 6 7 8 9 10 11 12 13 14 15 16 17
decision_type=9 9 9 1 1 9 9 9 1 9 1 1 9 1 1 1 9 9
left_child=2 3 4 5 -1 6 -2 8 -3 10 -9 12 -4 -12 15 -11 -13 -16
right_child=1 7 11 -5 -6 -7 -8 9 -10 14 13 16 -14 -15 17 -17 -18 -19
leaf_value=-0.036942660267853908 -0.029901896737199396 0.083942373029195383 0.0787040203388851 0.069265343635221008 0.067324588441634484 0.026590371092423921 0.046299342812085975 -0.048686375961802503 -0.028501339528176281 -0.047660138806240114 -0.041658013042601548 0.079494197473328643 0.081116226532850264 -0.0440066326046714 -0.049330929189404987 -0.047987300699080623 0.079802072168252761 -0.049323036484450584
leaf_weight=26.593248963356018 47.518965348601341 5.2931624054908752 455.2668519616127 14.510872915387152 6.1086929440498343 34.491793558001518 5.2323310673236838 12.783872798085213 20.400834649801258 1011.3479522541165 35.734005361795425 273.72473189234734 13.743787229061125 9.078886538743971 6.3265939354896528 141.16003575921059 7.8120703399181357 7.6644775420427322
leaf_count=110 218 18 1457 52 22 141 20 70 89 5345 180 876 44 47 33 738 25 40
internal_value=0.000681466 -0.0420869 0.0740725 0.00903324 -0.0133755 5.04292e-05 -0.0187829 -0.0462876 -0.00384184 -0.0471402 -0.0435882 0.0780084 0.0787747 -0.0421338 -0.0477197 -0.0477002 0.0795027 -0.0493266
internal_weight=2134.79 1351.54 783.249 101.754 32.7019 87.2431 52.7513 1249.79 25.694 1224.1 57.5968 750.547 469.011 44.8129 1166.5 1152.51 281.537 13.9911
internal_count=9525 6991 2534 431 132 379 238 6560 107 6453 297 2402 1501 227 6156 6083 901 73
cat_boundaries=0 1 4 7 8 9 22 23 24 25 26 27 28 29 30 31 32 33 34
cat_threshold=17664 537264128 151560 2097286 4096 1073742852 2147483648 1 1 0 0 0 0 0 0 0 0 0 0 0 0 16 4 2 2 1 1 1 4 1 1 1 4 4
is_linear=0
shrinkage=0.05


Tree=34
num_leaves=13
num_cat=12
split_feature=9 4 10 11 7 8 8 7 7 11 7 7
split_gain=487.256 6.13567 0.105404 0.0775555 0.0213921 0.000127106 7.63591e-07 2.67258e-07 1.24096e-07 8.6416e-08 8.4485e-08 6.44275e-09
threshold=0 1 2 3 4 5 6 7 8 9 10 11
decision_type=9 9 1 1 9 1 1 9 9 1 9 9
left_child=-1 -2 3 4 -3 -6 7 -4 -8 -9 -5 -10
right_child=1 2 6 10 5 -7 8 9 11 -11 -12 -13
leaf_value=0.16018427325996687 0.0230080678515171 -0.036948769422466561 -0.040508273883011335 -0.040539441870754568 -0.041215535690820947 -0.040598844480930867 -0.04057415728882597 -0.040534365456301562 -0.040554575873094786 -0.04052865955101155 -0.040524910537030549 -0.040547244533779628
leaf_weight=29.720310736447573 1.8551446702331302 82.037611741572618 1.0801511844620109 19.479548514820635 1.2522276863455764 2.5109942751005292 1.1226358488202095 40.155047871172428 0.61951018311083317 7.9493089485913506 1.0543921608477855 0.58044469170272261
leaf_count=181 54 4678 70 1192 35 141 65 2477 37 494 66 35
internal_value=0.00280002 -0.0343683 -0.0363733 -0.0377784 -0.0371179 -0.0408041 -0.0405342 -0.0405329 -0.0405622 -0.0405334 -0.0405387 -0.040551
internal_weight=189.417 159.697 157.842 106.335 85.8008 3.76322 51.5071 49.1845 2.32259 48.1044 20.5339 1.19995
internal_count=9525 9344 9290 6112 4854 176 3178 3041 137 2971 1258 72
cat_boundaries=0 3 28 29 30 31 32 33 34 35 36 37 38
cat_threshold=4608 4 262144 0 1073741824 0 0 0 0 0 1073741824 0 0 0 0 0 0 0 0 0 0 32768 0 0 0 0 0 2097152 2 1 4 1 1 1 1 1 4 2
is_linear=0
shrinkage=0.05


Tree=35
num_leaves=21
num_cat=20
split_feature=5 10 7 2 9 0 11 10 7 11 11 11 7 11 7 7 11 7 7 11
split_gain=2341.98 530.586 35.9615 30.6546 14.1184 5.65345 7.74221 0.967321 1.04296 0.706918 0.613232 0.271118 0.258377 0.106598 0.0309343 0.0133012 0.00165878 0.00150177 0.000292641 3.48772e-05
threshold=0 1 2 3 4 5 6 7 8 9 10 11 12 13 14 15 16 17 18 19
decision_type=9 1 9 9 9 9 1 1 9 1 1 1 9 1 9 9 1 9 9 1
left_child=1 3 -3 5 -5 6 -1 8 13 -10 -6 12 -7 -2 -13 -9 17 -4 19 -17
right_child=7 2 16 4 10 11 -8 15 9 -11 -12 14 -14 -15 -16 18 -18 -19 -20 -21
leaf_value=0.043469629494624802 -0.048949549908462765 0.020171671624419886 -0.051409257700317491 0.00064304433686864697 0.042609732756975827 0.060922138190229819 -0.0062857478924394266 -0.05338262420713933 -0.052573114550597266 -0.031643087485840292 0.053742415889588085 0.068888898923514352 0.065303611338273546 -0.050347831153528255 0.065851335247792228 -0.051886911142985707 -0.051939523819480415 -0.052321545737515476 -0.052242149626945428 -0.051920966743847309
leaf_weight=17.421921074390411 386.0301419198513 20.325187712907791 99.667774543166161 40.788475513458252 72.063356816768646 35.048445045948029 14.183928132057192 15.480777427554131 5.6838140040636063 13.901359975337984 14.933186411857603 56.673220187425613 841.83341547846794 210.69340951740742 9.8363941311836225 451.45171844959259 20.800046890974045 4.7249345034360877 6.0539753139019004 90.201756864786148
leaf_count=57 1659 68 451 143 235 116 46 67 25 57 49 189 2810 925 33 2045 94 21 27 408
internal_value=0.000288868 0.0478379 -0.0415166 0.0600625 0.0283471 0.0632794 0.0160595 -0.0500154 -0.0490706 -0.0377172 0.0399308 0.0646764 0.0651285 -0.0494433 0.0684397 -0.0519373 -0.0515318 -0.0514505 -0.0518964 -0.0518926
internal_weight=2427.8 1248.3 145.518 1102.78 127.785 974.997 31.6058 1179.5 616.309 19.5852 86.9965 943.391 876.882 596.724 66.5096 563.188 125.193 104.393 547.707 541.653
internal_count=9525 4312 634 3678 427 3251 103 5213 2666 82 284 3148 2926 2584 222 2547 566 472 2480 2453
cat_boundaries=0 1 2 3 16 19 20 21 22 23 24 25 26 27 28 29 30 31 32 33 34
cat_threshold=3150016 2 1 524289 768 0 0 0 0 0 2147483648 0 0 318767104 0 16 262144 128 2097280 8192 1 2 4 2 1 1 1 1 4 1 1 4 4 1
is_linear=0
shrinkage=0.05


Tree=36
num_leaves=8
num_cat=7
split_feature=9 11 7 7 8 7 7
split_gain=27.5324 0.0944864 0.0190494 0.00242988 0.00151583 0.0044399 0.00327273
threshold=0 1 2 3 4 5 6
decision_type=9 1 9 9 1 9 9
left_child=-1 3 -3 -2 5 -5 -6
right_child=1 2 -4 4 6 -7 -8
leaf_value=0.027841956747670413 -0.040133582832806276 -0.051759256650740076 -0.040127386954456792 -0.045879262981603115 -0.048542451689869093 -0.040123141423131059 -0.040130597368236161
leaf_weight=16.119067820254713 0.18479183525778353 9.9854584459681046 0.36484421556815405 30.138747293734916 1.0660718919243664 0.33877198863775504 0.12969616358169012
leaf_count=965 45 1700 93 6402 199 89 32
internal_value=-0.0216876 -0.0381584 -0.0513492 -0.0458504 -0.0458838 -0.0458153 -0.0476301
internal_weight=58.3274 42.2084 10.3503 31.8581 31.6733 30.4775 1.19577
internal_count=9525 8560 1793 6767 6722 6491 231
cat_boundaries=0 2 3 4 5 6 7 8
cat_threshold=0 128 1 4 2 1 4 1
is_linear=0
shrinkage=0.05


Tree=37
num_leaves=11
num_cat=10
split_feature=10 8 7 7 11 11 8 7 7 7
split_gain=3115.44 11.1373 15.3794 0.0803313 0.0252301 0.000525146 0.000982819 0.000786778 8.20584e-05 3.88363e-07
threshold=0 1 2 3 4 5 6 7 8 9
decision_type=1 1 9 9 1 1 1 9 9 9
left_child=5 3 -3 -2 -5 6 8 -7 -1 -4
right_child=1 2 9 4 -6 7 -8 -9 -10 -11
leaf_value=-0.050718482471424603 0.071638629770432033 0.0093494532760799616 0.070529568250084926 0.06865963124020924 0.067950936446041152 -0.050824528268811266 -0.050995306347953323 -0.050433165949282981 -0.050549374119191338 0.070516304907723273
leaf_weight=1008.5770146027207 21.433600902557373 19.205404549837112 11.354003697633743 753.83284199237823 150.6899881362915 252.56875710189342 32.813116326928139 13.529979780316351 7.2249218076467505 10.739658027887344
leaf_count=4875 70 65 37 2479 495 1211 157 66 35 35
internal_value=-0.00063126 0.0674802 0.0420754 0.0686133 0.0685416 -0.0507419 -0.050726 -0.0508046 -0.0507173 0.0705231
internal_weight=2281.97 967.255 41.2991 925.956 904.523 1314.71 1048.62 266.099 1015.8 22.0937
internal_count=9525 3181 137 3044 2974 6344 5067 1277 4910 72
cat_boundaries=0 1 2 3 4 5 6 7 8 9 10
cat_threshold=2 1 1 1 1 1 1 4 4 2
is_linear=0
shrinkage=0.05


Tree=38
num_leaves=20
num_cat=19
split_feature=5 9 9 2 0 11 11 11 11 7 8 11 11 7 7 7 7 11 7
split_gain=2404.46 111.411 80.274 39.7966 27.5149 23.457 19.6347 0.489971 0.115546 0.127936 0.068055 0.0559056 0.0461598 0.0302194 0.00451157 0.000361715 0.000190523 9.84626e-05 5.94155e-09
threshold=0 1 2 3 4 5 6 7 8 9 10 11 12 13 14 15 16 17 18
decision_type=9 9 9 9 9 1 1 1 1 9 1 1 1 9 9 9 9 1 9
left_child=2 10 6 4 5 -3 -1 -5 9 -6 11 14 13 -4 -2 17 -14 -12 -17
right_child=1 3 12 7 8 -7 -8 -9 -10 -11 15 -13 16 -15 -16 18 -18 -19 -20
leaf_value=-0.036132109389006517 -0.047145441934583178 -0.004421712118014562 0.073743733153587218 0.037178503353937548 -0.042226713230266867 0.091268033359296855 0.063352146016663988 0.026560830765639493 -0.049826658453402249 -0.049367004622760169 -0.049111099965185478 -0.046046906941223403 0.074618227356847977 0.076126479216868062 -0.048139333891533992 -0.048756793596400935 0.074869239334427226 -0.048900347405697833 -0.048758911040186474
leaf_weight=26.045943915843964 948.37898034602404 25.846419394016266 453.84619730710983 44.290036901831627 46.940114706754684 8.5141669511795026 6.126289188861846 14.397695645689963 7.4385479092597953 7.2411473989486685 26.258803769946098 128.50509144365788 272.40432262420654 13.708639979362486 11.557133331894873 6.814689502120018 7.7753785848617545 7.0245383828878394 6.447329714894293
leaf_count=110 5270 118 1457 184 232 30 22 56 42 38 140 705 876 44 66 37 25 38 35
internal_value=0.000668691 -0.0411521 0.0694606 -0.000111744 -0.0193192 0.0149409 -0.0131125 0.0295402 -0.037842 -0.043181 -0.0466949 -0.0470263 0.0731396 0.0738136 -0.0471574 -0.0489786 0.0746252 -0.0490666 -0.0487578
internal_weight=2069.56 1289.65 779.907 154.668 95.9804 34.3606 32.1722 58.6877 61.6198 54.1813 1134.99 1088.44 747.735 467.555 959.936 46.5454 280.18 33.2833 13.262
internal_count=9525 6991 2534 700 460 148 132 240 312 270 6291 6041 2402 1501 5336 250 901 178 72
cat_boundaries=0 1 4 7 20 21 22 23 24 25 26 27 28 29 30 31 32 33 34 35
cat_threshold=17664 402657284 4097377408 2152728096 4096 1073742852 2147483648 1 0 0 0 0 0 0 0 0 0 0 0 16 8200 1 1 1 1 4 1 1 1 4 4 1 4 1 2
is_linear=0
shrinkage=0.05


Tree=39
num_leaves=11
num_cat=10
split_feature=9 4 10 11 7 7 7 11 7 11
split_gain=415.439 6.10758 0.110903 0.0818011 0.0222294 2.13442e-07 9.21208e-08 6.94978e-08 5.06226e-08 4.56152e-09
threshold=0 1 2 3 4 5 6 7 8 9
decision_type=9 9 1 1 9 9 9 1 9 1
left_child=-1 -2 3 4 -3 7 -5 -4 -7 -10
right_child=1 2 5 6 -6 8 -8 -9 9 -11
leaf_value=0.13982735233724872 0.022903899221718194 -0.036722451006504883 -0.040503012489248889 -0.040510180357205619 -0.040760031868794649 -0.040526862693134685 -0.040494560085519021 -0.040497759162462732 -0.040506684666859305 -0.040513069509315332
leaf_weight=33.679738953709602 1.8735301755368707 77.869985895697027 38.117126749828458 18.440712436102331 3.5650529628619543 0.79588375892490149 0.99480690527707594 7.5412309961393467 0.33189497608691454 1.7800269564613698
leaf_count=181 54 4678 2494 1192 176 50 66 497 22 115
internal_value=0.00335309 -0.0340173 -0.0361227 -0.0375948 -0.0368992 -0.040503 -0.0405094 -0.0405021 -0.0405161 -0.0405121
internal_weight=184.99 151.31 149.437 100.871 81.435 48.5662 19.4355 45.6584 2.90781 2.11192
internal_count=9525 9344 9290 6112 4854 3178 1258 2991 187 137
cat_boundaries=0 3 28 29 30 31 32 33 34 35 36
cat_threshold=4608 4 262144 0 1073741824 0 0 0 0 0 1073741824 0 0 0 0 0 0 0 0 0 0 32768 0 0 0 0 0 2097152 2 1 4 4 4 1 2 2
is_linear=0
shrinkage=0.05


Tree=40
num_leaves=19
num_cat=18
split_feature=5 10 8 2 9 0 11 10 8 11 11 11 8 11 8 8 11 11
split_gain=2109.22 468.265 31.2014 29.6639 13.8642 5.37013 6.7097 1.0097 2.08111 2.48903 0.428054 0.218588 0.262094 0.0996861 0.0262601 0.0217536 0.0113883 2.67424e-05
threshold=0 1 2 3 4 5 6 7 8 9 10 11 12 13 14 15 16 17
decision_type=9 1 1 9 9 9 1 1 1 1 1 1 1 1 1 1 1 1
left_child=1 3 16 5 -5 6 -1 8 13 -10 -6 12 -7 -2 17 -13 -3 -9
right_child=7 2 -4 4 10 11 -8 14 9 -11 -12 15 -14 -15 -16 -17 -18 -19
leaf_value=0.040765643043408573 -0.047818006718938572 -0.050582169055526274 0.012695092221078867 0.0010502301246301574 0.041731130184155842 0.062410955672168048 -0.0057123403812013637 -0.050821930427314504 -0.0048356342436220064 -0.051469193969444153 0.051149740751437613 0.065617512352971016 0.057970430808265729 -0.049196445489148644 -0.053245986457260509 0.063035721553933027 -0.0518651837450596 -0.050852339614731859
leaf_weight=17.274757355451584 377.25892615318298 94.841377452015877 23.207049340009689 44.939343810081482 66.885114520788193 820.69962975382805 14.105760812759401 436.57550495862961 6.0745258480310422 5.4094581305980682 14.717715680599211 55.480809509754181 34.632107973098755 201.06121657788754 11.46490967273712 9.5655570030212385 21.153189554810524 86.64797243475914
leaf_count=57 1694 449 87 157 221 2809 46 2084 22 25 49 189 117 925 50 33 98 413
internal_value=0.000279225 0.0457004 -0.0402278 0.057217 0.0263779 0.0604054 0.0150709 -0.0488706 -0.0478787 -0.0268021 0.0386887 0.0617725 0.0622312 -0.0482972 -0.0508788 0.0652378 -0.0508161 -0.050827
internal_weight=2341.99 1217.5 139.202 1078.3 126.542 951.759 31.3805 1124.49 589.804 11.484 81.6028 920.378 855.332 578.32 534.688 65.0464 115.995 523.223
internal_count=9525 4312 634 3678 427 3251 103 5213 2666 47 270 3148 2926 2619 2547 222 547 2497
cat_boundaries=0 1 2 3 16 19 20 21 22 23 24 25 26 27 28 29 30 31 32
cat_threshold=3150016 2 1 524289 768 0 0 0 0 0 2147483648 0 0 318767104 0 16 262144 128 2098304 8192 1 2 1 1 1 1 1 1 1 1 1 1
is_linear=0
shrinkage=0.05


Tree=41
num_leaves=9
num_cat=8
split_feature=9 10 7 8 8 7 7 7
split_gain=26.0495 0.3144 0.00308412 0.00291645 2.38326e-08 2.79416e-09 1.63036e-09 5.83274e-10
threshold=0 1 2 3 4 5 6 7
decision_type=9 1 9 1 1 9 9 9
left_child=-1 2 -2 -4 5 -3 -6 -7
right_child=1 4 3 -5 6 7 -8 -9
leaf_value=0.027059185293454337 -0.049966478400547285 -0.040132727687914198 -0.0401148849721812 -0.048203787276285957 -0.040114294447525595 -0.040127747499823903 -0.040118406914737115 -0.040123172429640717
leaf_weight=16.027588724624366 27.195097277872264 0.26408380712382495 0.12493545189500099 1.0311033644247798 0.24644155451096594 0.1452304960694164 10.916067349491636 0.13389187841676176
leaf_count=965 5137 65 35 207 70 37 2974 35
internal_value=-0.02102 -0.0376208 -0.049859 -0.0473296 -0.0401188 -0.040129 -0.0401183 -0.0401256
internal_weight=56.0844 40.0569 28.3511 1.15604 11.7057 0.543206 11.1625 0.279122
internal_count=9525 8560 5379 242 3181 137 3044 72
cat_boundaries=0 2 3 4 5 6 7 8 9
cat_threshold=0 128 2 4 1 2 1 1 2
is_linear=0
shrinkage=0.05


Tree=42
num_leaves=11
num_cat=10
split_feature=10 8 7 7 11 11 8 7 7 7
split_gain=2807.98 10.5724 14.0395 0.0853085 0.0238927 0.000418547 0.00134012 0.000774268 0.00014946 2.48052e-08
threshold=0 1 2 3 4 5 6 7 8 9
decision_type=1 1 9 9 1 1 1 9 9 9
left_child=5 3 -3 -2 -5 6 8 -7 -1 -4
right_child=1 2 9 4 -6 7 -8 -9 -10 -11
leaf_value=-0.049855712098433334 0.068562074430952455 0.0083784994343477481 0.06705344007031093 0.065458326058889613 0.064761004990161894 -0.049956707595689522 -0.050186514497096914 -0.049558137565712083 -0.049621121549771545 0.06705005474042379
leaf_weight=958.60187643021345 21.059295177459717 19.261949568986893 11.13143327832222 736.8803608417511 147.41428643465042 240.23461312055588 31.293036192655563 12.835946217179297 6.8380220979452124 10.529491662979126
leaf_count=4875 70 65 37 2479 495 1211 157 66 35 35
internal_value=-0.000682909 0.0642934 0.0394349 0.065417 0.0653421 -0.0498791 -0.0498645 -0.0499365 -0.0498541 0.0670518
internal_weight=2196.08 946.277 40.9229 905.354 884.295 1249.8 996.733 253.071 965.44 21.6609
internal_count=9525 3181 137 3044 2974 6344 5067 1277 4910 72
cat_boundaries=0 1 2 3 4 5 6 7 8 9 10
cat_threshold=2 1 1 1 1 1 1 4 4 2
is_linear=0
shrinkage=0.05


Tree=43
num_leaves=20
num_cat=19
split_feature=3 9 9 2 0 11 7 10 7 11 11 11 11 7 8 11 7 7 7
split_gain=2015.67 202.698 150.598 42.3974 32.9125 12.4492 4.50001 0.800644 0.183462 0.148706 0.0964773 0.0713911 0.00901659 0.00650737 0.00425093 0.00265375 0.00127242 0.000366658 3.32422e-10
threshold=0 1 2 3 4 5 6 7 8 9 10 11 12 13 14 15 16 17 18
decision_type=9 9 9 9 9 1 9 1 9 1 1 1 1 9 1 1 9 9 9
left_child=2 3 -1 4 5 -2 -5 8 10 -4 -3 14 -8 -13 17 -10 -16 -9 -18
right_child=1 7 9 6 -6 -7 12 11 15 -11 -12 13 -14 -15 16 -17 18 -19 -20
leaf_value=-0.039424828229533887 0.013863361317968538 -0.042608755090492834 0.069318354800786894 0.044358516619784759 -0.036625025766228496 0.084076840149294063 0.070648881092387664 -0.047400103340510626 -0.045045423112736287 0.070783270442454124 -0.035966368621467126 -0.046110265074474459 0.072795370805121495 -0.048043353215821892 -0.048819455620372557 -0.044648490122179717 -0.048057608250243272 -0.047725157001832275 -0.048058154179187081
leaf_weight=31.219686359167099 22.455633565783501 21.399497583508492 451.10107958316803 39.863034412264824 35.806958109140396 8.782024562358858 7.0615801513195038 8.8596727550029755 493.96031826734543 281.24625688791275 7.342191934585574 85.250325232744217 15.927091509103777 4.5878265351057044 10.780222579836845 46.032167166471481 5.7565898895263672 417.15258398652077 5.4079517871141434
leaf_count=142 102 118 1469 152 178 30 23 54 2883 916 42 498 53 27 59 255 33 2460 31
internal_value=0.000663017 -0.0386914 0.0640566 0.0200046 -0.00815119 0.0254543 0.0470349 -0.0456993 -0.0448044 0.0689396 -0.0409119 -0.0474954 0.072136 -0.046209 -0.0477534 -0.0450116 -0.048432 -0.0477184 -0.0480579
internal_weight=1999.99 1236.43 763.567 129.896 67.0446 31.2377 62.8517 1106.53 568.734 732.347 28.7417 537.795 22.9887 89.8382 447.957 539.992 21.9448 426.012 11.1645
internal_count=9525 6998 2527 538 310 132 228 6460 3298 2385 160 3162 76 525 2637 3138 123 2514 64
cat_boundaries=0 1 4 7 20 21 22 23 24 25 26 27 28 29 30 31 32 33 34 35
cat_threshold=2 540409856 147480 1142947974 4096 0 2147483648 0 256 0 0 0 0 0 0 0 0 0 0 16 24584 1 4 2 1 1 1 1 2 4 1 1 1 1 2
is_linear=0
shrinkage=0.05


Tree=44
num_leaves=14
num_cat=13
split_feature=9 4 11 10 11 7 8 8 7 7 7 11 7
split_gain=354.32 6.32833 0.38311 0.0529088 0.0391874 0.0112699 8.4377e-05 1.33897e-06 2.33011e-07 2.06178e-07 9.9422e-08 4.31943e-08 4.77914e-09
threshold=0 1 2 3 4 5 6 7 8 9 10 11 12
decision_type=9 9 1 1 1 9 1 1 9 9 9 1 9
left_child=-1 2 -2 4 5 -3 -7 8 -5 -9 -6 -10 -11
right_child=1 3 -4 7 10 6 -8 9 11 12 -12 -13 -14
leaf_value=0.1216597533886902 0.090564270548529613 -0.037759427119333881 0.0456981009403414 -0.040446212514277019 -0.040482072467470216 -0.040540796612938655 -0.041072639466911698 -0.040527492629622165 -0.040471962570546999 -0.040499457697741041 -0.040465350548710539 -0.040467671427527115 -0.040492812925346885
leaf_weight=38.191806772723794 2.6520609278231859 71.875540966168046 0.57982596568763289 0.94970197882503271 17.197996657341719 2.2613033121451735 1.1127227358520024 1.0292460238561034 35.513093730434775 0.55944638606160879 0.93734169378876941 7.0242974115535608 0.52410952001809985
leaf_count=233 88 4579 36 70 1176 141 35 65 2472 37 66 492 35
internal_value=0.00387254 -0.0339277 0.0201543 -0.0364537 -0.0383948 -0.037892 -0.0407162 -0.0404726 -0.0404707 -0.0405115 -0.0404812 -0.0404713 -0.0404962
internal_weight=180.408 142.217 3.23189 138.985 93.3849 75.2496 3.37403 45.5999 43.4871 2.1128 18.1353 42.5374 1.08356
internal_count=9525 9292 124 9168 5997 4755 176 3171 3034 137 1242 2964 72
cat_boundaries=0 3 28 29 30 31 32 33 34 35 36 37 38 39
cat_threshold=4612 4 262144 0 1073741824 0 0 0 0 0 1077936128 0 0 0 0 0 0 0 0 0 0 32768 0 0 0 0 0 2097152 1 2 1 4 2 1 1 1 4 1 2
is_linear=0
shrinkage=0.05


Tree=45
num_leaves=19
num_cat=18
split_feature=5 10 8 2 9 0 11 10 8 11 11 8 11 11 11 8 11 11
split_gain=1903.24 414.761 29.7281 29.0576 12.3687 5.27471 5.75508 1.07362 2.00857 2.34066 0.401279 0.205632 0.16856 0.10262 0.0818059 0.0274112 0.0101335 2.91507e-05
threshold=0 1 2 3 4 5 6 7 8 9 10 11 12 13 14 15 16 17
decision_type=9 1 1 9 9 9 1 1 1 1 1 1 1 1 1 1 1 1
left_child=1 3 16 5 -5 6 -1 8 13 -10 -6 12 -7 -2 -13 17 -3 -9
right_child=7 2 -4 4 10 11 -8 15 9 -11 -12 14 -14 -15 -16 -17 -18 -19
leaf_value=0.038093263865110569 -0.046685657874137088 -0.049580973953664398 0.012580654116829973 0.0007375186564595234 0.03912822308902434 0.059910843197543862 -0.0051522032882864591 -0.049868978179015616 -0.0047037839349748038 -0.050554823390791342 0.04833436183823709 0.055412567305128058 0.06279643245593787 -0.048118196939110153 0.060714079083002775 -0.052396847072894083 -0.050823439581205332 -0.049901595815639715
leaf_weight=17.054474592208862 360.6267431974411 89.901481494307518 23.105726957321167 44.785488173365593 65.815012544393539 796.76961046457291 14.015764653682711 413.49271883070469 6.0497875660657865 5.1553131490945816 14.432349324226378 33.812232375144958 54.041329354047775 191.34444490075111 9.2718951106071454 11.009298577904699 20.075416132807732 82.099408313632011
leaf_count=57 1694 449 87 157 221 2809 46 2084 22 25 49 117 189 925 33 50 98 413
internal_value=0.00028515 0.0438101 -0.0389759 0.0547201 0.0245363 0.0579088 0.01406 -0.0478122 -0.0467568 -0.0257992 0.0362648 0.0592605 0.0600941 -0.0471823 0.0565535 -0.0499292 -0.0498078 -0.0498744
internal_weight=2252.86 1183.08 133.083 1050 125.033 924.965 31.0702 1069.78 563.176 11.2051 80.2474 893.895 850.811 551.971 43.0841 506.601 109.977 495.592
internal_count=9525 4312 634 3678 427 3251 103 5213 2666 47 270 3148 2998 2619 150 2547 547 2497
cat_boundaries=0 1 2 3 16 19 20 21 22 23 24 25 26 27 28 29 30 31 32
cat_threshold=3150016 2 1 524289 768 0 0 0 0 0 2147483648 0 0 318767104 0 16 262144 128 2098304 8192 1 2 1 1 1 1 1 1 1 1 1 1
is_linear=0
shrinkage=0.05


Tree=46
num_leaves=12
num_cat=11
split_feature=9 10 11 7 8 7 8 7 7 7 11
split_gain=24.6486 0.27697 0.0493488 0.0153399 0.00142424 0.00301943 2.72019e-08 6.86991e-09 1.37413e-09 4.96893e-10 1.38532e-10
threshold=0 1 2 3 4 5 6 7 8 9 10
decision_type=9 1 1 9 1 9 1 9 9 9 1
left_child=-1 2 4 -4 5 -2 8 -8 -3 -9 -10
right_child=1 6 3 -5 -6 -7 7 9 10 -11 -12
leaf_value=0.026348367290286431 -0.048148195260345306 -0.040107326371813329 -0.053329737177160497 -0.040110362475400417 -0.050312797347634601 -0.040108020270518248 -0.040128719171772777 -0.040119276385558469 -0.040111631307858026 -0.040114906119465749 -0.040111138335015867
leaf_weight=15.922672961838543 18.501949311699708 0.23165395157411695 7.3792284287046668 0.22617882094345976 0.75492031313479557 0.11751246987842989 0.25547524844296277 0.13564947107806802 1.7102465599309653 0.1249532678630193 8.5470704953186161
leaf_count=965 3935 70 1202 66 141 35 65 37 495 35 2479
internal_value=-0.0203042 -0.0370443 -0.0495236 -0.0529366 -0.0481838 -0.0480975 -0.0401117 -0.0401229 -0.0401111 -0.0401172 -0.0401112
internal_weight=53.9075 37.9848 26.9798 7.60541 19.3744 18.6195 11.005 0.516078 10.489 0.260603 10.2573
internal_count=9525 8560 5379 1268 4111 3970 3181 137 3044 72 2974
cat_boundaries=0 2 3 4 5 6 7 8 9 10 11 12
cat_threshold=0 128 2 1 4 1 4 1 1 1 2 2
is_linear=0
shrinkage=0.05


Tree=47
num_leaves=11
num_cat=10
split_feature=10 8 7 7 11 8 11 11 7 7
split_gain=2536.47 9.98051 13.2352 0.0654949 0.0249343 0.000315752 0.00137749 0.00062825 0.000161428 7.07533e-06
threshold=0 1 2 3 4 5 6 7 8 9
decision_type=1 1 9 9 1 1 1 1 9 9
left_child=5 3 -3 -2 -5 7 -7 8 -1 -4
right_child=1 2 9 4 -6 6 -8 -9 -10 -11
leaf_value=-0.04906766479094566 0.065428758691207095 0.0073269304862933404 0.064568111222223584 0.06269416850286888 0.061971878053031997 -0.049407424082293497 -0.048775826976270809 -0.04915865461258092 -0.048817117220018455 0.06451014808116666
leaf_weight=909.30498506128788 20.567364454269409 19.320247948169708 9.7221731543540955 716.2536985874176 143.40811106562614 29.745002754032612 12.162612333893774 227.9711748957634 6.4747111499309531 11.483345299959183
leaf_count=4875 70 65 33 2479 495 157 66 1211 35 39
internal_value=-0.000738307 0.0615234 0.0372625 0.0626404 0.0625737 -0.0490893 -0.0492241 -0.0490844 -0.0490659 0.0645367
internal_weight=2106.41 920.755 40.5258 880.229 859.662 1185.66 41.9076 1143.75 915.78 21.2055
internal_count=9525 3181 137 3044 2974 6344 223 6121 4910 72
cat_boundaries=0 1 2 3 4 5 6 7 8 9 10
cat_threshold=2 1 1 1 1 1 1 1 4 4
is_linear=0
shrinkage=0.05


Tree=48
num_leaves=22
num_cat=21
split_feature=5 4 10 9 9 2 10 11 7 7 11 11 11 7 7 11 7 7 7 11 11
split_gain=1923.11 110.245 67.6504 64.015 30.3014 26.2493 0.51093 1.54296 0.455046 0.444657 0.145375 0.0619081 0.0518186 0.0401951 0.0248492 0.0128757 0.00256651 0.000530943 0.000118297 0.0001019 1.82201e-05
threshold=0 1 2 3 4 5 6 7 8 9 10 11 12 13 14 15 16 17 18 19 20
decision_type=9 9 1 9 9 9 1 1 9 9 1 1 1 9 9 1 9 9 9 1 1
left_child=3 2 12 -1 6 9 7 14 -9 -6 -7 13 -2 -5 -3 -11 20 -13 19 -18 -8
right_child=1 4 -4 11 5 10 16 8 -10 15 -12 17 -14 -15 -16 -17 18 -19 -20 -21 -22
leaf_value=-0.012740452258106256 0.10342108055691442 -0.045519066166800931 -0.047125424361358276 0.066051452303816247 -0.030784014463857059 0.01080665242086519 -0.047695035479862861 -0.031055361717814409 -0.047300963464479477 -0.04271269730759001 0.0053562195074433119 0.067073713493739001 0.098342630996648056 0.068834595614443203 -0.047725862012385066 -0.0410114942252836 -0.047109302535109913 0.067499139503885086 -0.047308178905198971 -0.047172012537761529 -0.047568849250337213
leaf_weight=30.874045103788376 16.470489591360092 467.68480405211449 11.227576076984404 437.16562366485596 9.876757025718689 45.570783376693726 18.62181331217289 24.745708972215652 5.2196725010871914 42.485878273844719 16.72366813570261 268.11612015962601 7.2270257174968746 13.369786798954008 13.114082828164099 15.066745340824125 386.32261043787003 7.5402294099330893 8.4879081994295102 77.830656468868256 3.3798852860927608
leaf_count=132 68 2865 70 1443 53 197 112 136 32 226 69 890 24 44 78 93 2412 25 52 483 21
internal_value=0.000646947 -0.0394225 0.0419591 0.062273 -0.0422709 -0.0154204 -0.0455494 -0.0448932 -0.0338852 -0.0353437 0.00805101 0.0655919 0.101872 0.066134 -0.0455793 -0.0422673 -0.0471478 0.0670854 -0.0471232 -0.0471198 -0.0476757
internal_weight=1927.12 1170.06 34.9251 757.066 1135.13 129.724 1005.41 510.764 29.9654 67.4294 62.2945 726.192 23.6975 450.535 480.799 57.5526 494.643 275.656 472.641 464.153 22.0017
internal_count=9525 6991 162 2534 6829 638 6191 3111 168 372 266 2402 92 1487 2943 319 3080 915 2947 2895 133
cat_boundaries=0 1 40 41 44 47 60 61 62 63 64 65 66 67 68 69 70 71 72 73 74 75
cat_threshold=17664 0 0 0 0 0 2 0 0 0 0 0 0 0 0 0 0 540672 16793664 0 0 0 33554432 0 16 0 134217728 0 0 0 0 0 0 8 0 0 0 1074790400 0 4096 2 4096 1028 2147483904 402657284 339281024 2151679522 0 0 0 0 0 0 0 0 0 0 0 0 16 2 1 4 1 1 1 1 4 4 1 1 4 4 1 1
is_linear=0
shrinkage=0.05


Tree=49
num_leaves=11
num_cat=10
split_feature=9 4 7 10 11 10 11 7 11 11
split_gain=309.135 6.38143 0.911389 0.413674 0.317903 0.0898309 0.0693781 1.10335e-07 4.26008e-08 1.86841e-09
threshold=0 1 2 3 4 5 6 7 8 9
decision_type=9 9 9 1 1 1 1 9 1 1
left_child=-1 -2 3 4 -3 6 -4 8 -7 -5
right_child=1 2 5 9 -6 7 -8 -9 -10 -11
leaf_value=0.11282398005535654 0.020451011818586096 -0.0075669061116222834 -0.036900586091098496 -0.040463004740751041 -0.04043778208724047 -0.040443755499266321 -0.040502007047665184 -0.040462655889064031 -0.040439378397583464 -0.040467314874911467
leaf_weight=38.888582691550255 3.1600111797451973 4.4113819431513548 69.163290238939226 0.29979827627539635 0.8827373357489704 33.566561963409185 16.577851825393736 0.72915769554674525 6.662141114473342 1.5587487416341899
leaf_count=166 113 188 4641 22 66 2483 1187 52 496 111
internal_value=0.00432392 -0.0323459 -0.0349274 -0.0201723 -0.0130478 -0.0385171 -0.0375969 -0.0404434 -0.040443 -0.0404666
internal_weight=175.9 137.012 133.852 7.15267 5.29412 126.699 85.7411 40.9579 40.2287 1.85855
internal_count=9525 9359 9246 387 254 8859 5828 3031 2979 133
cat_boundaries=0 2 44 45 46 47 48 49 50 51 52
cat_threshold=4608 4 0 1073741824 0 0 0 0 0 1073741824 0 0 0 0 0 0 0 0 0 512 32768 131072 8388610 0 0 0 2097152 0 0 0 0 0 0 0 0 0 0 0 0 0 0 0 0 32768 1 2 1 2 1 4 1 2
is_linear=0
shrinkage=0.05


Tree=50
num_leaves=27
num_cat=26
split_feature=5 10 0 8 2 9 0 11 9 10 8 11 7 11 11 7 8 7 7 8 11 7 11 7 11 7
split_gain=1722.91 392.774 30.6056 33.081 18.7444 14.9941 5.93465 5.93878 1.15796 0.985449 1.92883 0.977652 0.727018 0.259928 0.126225 0.0532551 0.0392476 0.0366671 0.0241603 0.0166478 0.00796639 0.00668912 0.00224149 5.9803e-05 4.12215e-05 5.05864e-08
threshold=0 1 2 3 4 5 6 7 8 9 10 11 12 13 14 15 16 17 18 19 20 21 22 23 24 25
decision_type=9 1 9 1 9 9 9 1 9 1 1 1 9 1 1 9 1 9 9 1 1 9 1 9 1 9
left_child=1 4 3 -3 6 8 7 -1 -6 10 18 -12 -4 -7 15 -8 23 -18 20 22 -2 -16 -14 -11 -25 -21
right_child=9 2 12 -5 5 13 14 -9 -10 16 11 -13 19 -15 21 -17 17 -19 -20 25 -22 -23 -24 24 -26 -27
leaf_value=0.035944365989009269 -0.046507542569481641 -0.043608600915136686 -0.063349373556240637 0.08555014462784391 0.011341757706088668 0.048566132139528317 0.057529847145249384 -0.0067830319331680967 -0.0018423462896253716 -0.048890361933003917 -0.01153122164064066 -0.041366778247835745 -0.04839271728956774 0.040839867696894225 0.060102321063900933 0.055391822916096761 -0.055209714597528638 -0.049353211823931264 -0.049340852715315846 -0.050694691945928842 -0.046097368737494322 0.058632956003234732 -0.049027000054050834 -0.049010677539608603 -0.049051298054068292 -0.050687421285256808
leaf_weight=19.511096745729446 338.19285666942596 8.8931534141302109 9.2100964188575745 11.202650427818298 32.033188417553902 66.783083975315094 767.04583871364594 13.944956153631209 29.582170844078064 9.4789767861366272 5.9521099776029569 5.0969458967447281 79.224305272102356 13.005545318126677 48.601292103528976 30.275258183479309 4.9862863421440125 5.7599719911813718 6.9063046574592581 4.7856523096561414 182.12519831955433 9.2138987183570844 16.899945393204689 386.93854340910912 74.477218955755234 4.7837706059217453
leaf_count=66 1667 47 33 36 117 231 2799 46 96 51 22 25 422 45 175 108 20 30 36 23 925 34 90 2063 396 23
internal_value=0.00023178 0.0416095 -0.0382253 0.0189585 0.0524773 0.0275973 0.0555013 0.0139618 0.00563854 -0.0469792 -0.0459697 -0.0252944 -0.0458831 0.0420381 0.0569463 0.0574487 -0.0490829 -0.0520706 -0.046403 -0.0487022 -0.046364 0.0598682 -0.0485042 -0.0490147 -0.0490172 -0.0506911
internal_weight=2184.91 1165 135 20.0958 1030 141.404 888.592 33.4561 61.6154 1019.91 538.273 11.0491 114.904 79.7886 855.136 797.321 481.641 10.7463 527.224 105.694 520.318 57.8152 96.1243 470.895 461.416 9.56942
internal_count=9626 4391 674 83 3717 489 3228 112 213 5235 2675 47 591 276 3116 2907 2560 50 2628 558 2592 209 512 2510 2459 46
cat_boundaries=0 1 2 3 4 17 20 21 22 25 26 27 28 29 30 31 32 33 34 35 36 37 38 39 40 41 42
cat_threshold=3182784 2 304 1 524289 512 0 0 0 0 0 2147483648 0 0 318767104 0 16 262144 268566656 3146880 8192 1 0 268566656 1048576 2 1 1 1 1 1 4 1 1 4 1 1 4 1 1 1 4
is_linear=0
shrinkage=0.05


Tree=51
num_leaves=13
num_cat=12
split_feature=9 10 4 11 8 7 7 8 7 7 7 11
split_gain=21.7027 0.192303 0.0511298 0.0331058 0.0230209 0.0112333 0.00195356 3.29986e-08 1.62529e-08 1.02711e-09 1.36471e-10 2.1104e-11
threshold=0 1 2 3 4 5 6 7 8 9 10 11
decision_type=9 1 9 1 1 9 9 1 9 9 9 1
left_child=2 3 -1 4 6 -5 -2 8 -3 -9 -10 -11
right_child=1 7 -4 5 -6 -7 -8 9 10 11 -12 -13
leaf_value=0.035009644940218909 -0.046684916224265433 -0.040125618574932992 -0.0077017464248138566 -0.051582444453144853 -0.054526130319600678 -0.04010787130670429 -0.040101344059579769 -0.040100871730066649 -0.040109243667790381 -0.04010450849281131 -0.040106925104641394 -0.040104309738439675
leaf_weight=11.112210363149641 16.89888825546949 0.27169470232911408 3.9160105455666789 6.4187424927949932 0.97891110228375211 0.22062369110062707 0.11343567352742923 0.21795081160962582 0.12146004964597523 1.5966032345313579 0.13292063609696925 8.168490653624751
leaf_count=38 4008 71 928 1184 131 67 36 70 36 493 40 2524
internal_value=-0.0194607 -0.0356285 0.0252496 -0.0481836 -0.0470701 -0.0512011 -0.046641 -0.0401049 -0.0401171 -0.0401043 -0.040108 -0.0401043
internal_weight=50.1679 35.1397 15.0282 24.6306 17.9912 6.63937 17.0123 10.5091 0.526075 9.98304 0.254381 9.76509
internal_count=9626 8660 966 5426 4175 1251 4044 3234 147 3087 76 3017
cat_boundaries=0 2 3 37 38 39 40 41 42 43 44 45 46
cat_threshold=0 128 2 0 0 0 0 0 0 0 0 0 0 0 0 0 0 0 0 0 0 0 0 0 0 0 0 0 0 0 0 0 0 0 0 0 2148480 1 1 4 4 2 1 1 2 2
is_linear=0
shrinkage=0.05


Tree=52
num_leaves=7
num_cat=6
split_feature=10 8 11 8 11 11
split_gain=2330.78 7.77256 0.00250435 0.000805556 0.000912381 0.000176279
threshold=0 1 2 3 4 5
decision_type=1 1 1 1 1 1
left_child=3 2 -2 4 -1 -5
right_child=1 -3 -4 5 -6 -7
leaf_value=-0.048353212287068764 0.060267888628536263 0.038463195045178672 0.060038933634807695 -0.048678530498172397 -0.048468508100814385 -0.048446988237205703
leaf_weight=880.40754731744528 720.38768979907036 43.057542145252228 143.17318773269653 26.883953064680099 213.12654863297939 11.840624392032622
leaf_count=4982 2577 147 510 150 1193 67
internal_value=-0.000546591 0.0591962 0.0602299 -0.0483836 -0.0483757 -0.0486077
internal_weight=2038.88 906.618 863.561 1132.26 1093.53 38.7246
internal_count=9626 3234 3087 6392 6175 217
cat_boundaries=0 1 2 3 4 5 6
cat_threshold=2 1 1 1 1 1
is_linear=0
shrinkage=0.05


Tree=53
num_leaves=22
num_cat=21
split_feature=5 4 9 10 11 9 2 9 11 11 10 11 8 11 8 11 8 8 11 8 11
split_gain=1733.88 135.192 48.2505 44.6142 36.7086 34.4093 28.4792 8.15014 3.86278 0.579255 0.494414 1.60811 0.498438 0.259024 0.248977 0.059321 0.0230422 0.00815267 0.00141836 0.00123997 5.79418e-05
threshold=0 1 2 3 4 5 6 7 8 9 10 11 12 13 14 15 16 17 18 19 20
decision_type=9 9 9 1 1 9 9 9 1 1 1 1 1 1 1 1 1 1 1 1 1
left_child=2 3 4 13 -1 10 14 9 -9 -8 11 16 -13 -2 18 -4 -3 20 -7 -17 -12
right_child=1 5 15 -5 -6 6 7 8 -10 -11 17 12 -14 -15 -16 19 -18 -19 -20 -21 -22
leaf_value=-0.051841114896108854 0.098851923463700933 -0.044982627797460241 0.063086279707483525 -0.046548547331728835 0.059669137504420981 -0.040455061282252548 -0.017345627570779509 0.038185907171412903 0.0027539858110587978 0.0012428362311025249 -0.046534204234612124 -0.029643341763575765 -0.046724951104986472 0.088555598465479529 -0.050012611456347771 0.064018913333134239 -0.047165485802909822 -0.047487671690389713 -0.039859144183593036 0.064704298005360691 -0.046582360373344206
leaf_weight=19.547207519412041 18.011391639709473 448.71137601137161 455.68983426690102 6.9511373192071906 11.857276514172556 40.07371911406517 21.746595308184624 27.832699492573738 10.630065530538557 5.191586226224902 380.16652841866016 23.194195315241814 5.2344447523355511 9.2427568733692187 7.5406410694122306 249.58351600170135 12.424371153116224 23.999033078551292 13.298775278031824 6.7782974839210501 74.744955003261566
leaf_count=91 72 2905 1538 46 42 222 93 119 44 21 2520 130 34 30 43 850 78 147 85 23 493
internal_value=0.000700888 -0.0382322 0.0595371 0.0514733 -0.00738653 -0.0414754 -0.0132565 0.00956667 0.0225347 -0.0100372 -0.0449828 -0.0443299 -0.0327885 0.0953601 -0.0356547 0.0625501 -0.0450414 -0.0465895 -0.0403066 0.064037 -0.0465421
internal_weight=1872.45 1128.99 743.456 34.2053 31.4045 1094.79 126.314 65.4009 38.4628 26.9382 968.475 489.564 28.4286 27.2541 60.9131 712.052 461.136 478.911 53.3725 256.362 454.911
internal_count=9626 7082 2544 148 133 6934 627 277 163 114 6307 3147 164 102 350 2411 2983 3160 307 873 3013
cat_boundaries=0 1 40 43 44 45 48 61 64 65 66 67 68 69 70 71 72 73 74 75 76 77
cat_threshold=17664 0 0 512 0 0 0 0 0 16777216 0 0 0 0 0 0 0 16826368 16793664 0 0 0 33554432 0 0 0 134217728 0 0 0 0 0 0 8 0 0 0 1074790400 0 4096 4096 1073741829 2147484160 2 1 402657284 339281024 2151679522 0 0 0 0 0 0 0 0 0 0 0 0 16 16777216 1073741824 2097280 1 1 2 1 1 1 1 1 1 1 1 1 1
is_linear=0
shrinkage=0.05


Tree=54
num_leaves=12
num_cat=11
split_feature=9 10 8 11 11 7 8 7 7 11 7
split_gain=236.605 0.611115 0.486488 0.31633 0.0988643 0.0271105 3.08508e-06 1.60868e-06 1.79577e-07 5.64496e-08 5.09232e-10
threshold=0 1 2 3 4 5 6 7 8 9 10
decision_type=9 1 1 1 1 9 1 9 9 1 9
left_child=-1 2 4 -4 5 -2 8 -8 -3 -10 -9
right_child=1 6 3 -5 -6 -7 7 10 9 -11 -12
leaf_value=0.092779223382388878 -0.03285646269971277 -0.040393483786168853 -0.040851883065946254 -0.007629131356114204 -0.037370064501396023 -0.0409745765512773 -0.040520943454914353 -0.04043418869215492 -0.040417688397942138 -0.040412484650656944 -0.040431927970319873
leaf_weight=41.558274609968066 65.324059820733964 0.84085389692336321 0.94751329720020294 2.9385557780042286 15.93437587097287 1.044861964881419 1.0846377434208989 0.47415562067180872 32.067189102992415 6.2229238934814921 0.52478097006678504
leaf_count=323 4631 70 67 142 1193 36 71 36 2524 493 40
internal_value=0.00160947 -0.0328346 -0.0330171 -0.0157296 -0.0338334 -0.0329843 -0.0404195 -0.0404788 -0.0404163 -0.0404168 -0.040433
internal_weight=168.962 127.404 86.1894 3.88607 82.3033 66.3689 41.2145 2.08357 39.131 38.2901 0.998937
internal_count=9626 9303 6069 209 5860 4667 3234 147 3087 3017 76
cat_boundaries=0 3 4 5 6 7 8 9 10 11 12 13
cat_threshold=4608 4 2097152 2 1 2 1 4 1 1 1 1 2
is_linear=0
shrinkage=0.05


Tree=55
num_leaves=23
num_cat=22
split_feature=5 9 4 10 7 11 7 10 8 11 7 7 7 8 7 7 8 11 11 7 11 7
split_gain=1559.78 350.649 40.0804 14.1027 7.93312 1.93243 1.18028 1.05813 1.88109 0.908185 0.654489 0.324037 0.0768719 0.0373631 0.0311551 0.0258649 0.0246136 0.00857036 0.00722939 4.81624e-05 3.30528e-05 4.16004e-08
threshold=0 1 2 3 4 5 6 7 8 9 10 11 12 13 14 15 16 17 18 19 20 21
decision_type=9 9 9 1 9 1 9 1 1 1 9 9 9 1 9 9 1 1 1 9 1 9
left_child=1 2 4 6 -1 12 -4 8 15 -10 -5 -7 -3 19 -15 18 17 -12 -2 -9 -21 -18
right_child=7 5 3 10 -6 11 -8 13 9 -11 16 -13 -14 14 -16 -17 21 -19 -20 20 -22 -23
leaf_value=-0.0015141961282949569 -0.045535931865038508 0.05245396763651803 0.0079218318558897799 -0.061365877295856477 0.065204325159075677 0.043442961170158653 -0.018333414417066759 -0.048123024375783176 -0.011131165062545681 -0.040295866899839938 -0.047014634155451783 0.0526360152453356 0.055199457602912498 -0.054208834382916085 -0.048707184252596986 -0.048562134208906219 -0.049942268684910737 -0.04825481872338324 -0.045135135013502123 -0.048234224112085874 -0.0482716698131338 -0.049935531870483052
leaf_weight=6.5984020084142685 321.99979081749916 858.81071300804615 11.819524824619293 9.1931357085704803 13.718844652175905 73.834685802459717 6.7108495533466348 8.9390456229448318 5.9014474302530271 4.8738090693950653 80.64882917702198 11.015571653842924 26.275811374187469 4.8316062837839127 5.5053160935640317 6.5352022647857657 4.5840224176645261 16.839110985398293 172.93661116063595 365.07210360467434 70.275215044617653 4.5821533352136612
leaf_count=25 1667 3225 39 34 44 266 22 51 22 25 455 42 98 20 30 36 23 95 925 2063 396 23
internal_value=0.000241844 0.0401142 -0.0289687 -0.0391718 0.029176 0.0513154 -0.00158661 -0.0460747 -0.044993 -0.0243228 -0.0485651 0.0446364 0.0525355 -0.048307 -0.0512787 -0.0454372 -0.0474618 -0.0472289 -0.0453959 -0.0482379 -0.0482403 -0.0499389
internal_weight=2091.5 1124.63 154.695 134.378 20.3172 969.937 18.5304 966.87 512.247 10.7753 115.847 84.8503 885.087 454.623 10.3369 501.472 106.654 97.4879 494.936 444.286 435.347 9.16618
internal_count=9626 4391 760 691 69 3631 61 5235 2675 47 630 308 3323 2560 50 2628 596 550 2592 2510 2459 46
cat_boundaries=0 1 4 41 42 43 44 45 46 47 48 49 50 51 52 53 54 55 56 57 58 59 60
cat_threshold=3182784 537133056 16392 2147745792 0 0 0 0 0 0 0 0 0 0 0 4096 0 0 0 0 0 16777280 0 0 0 8 0 268435456 0 0 0 0 0 0 0 0 0 0 0 0 64 2 4 1 4 2 1 1 1 4 4 1 1 4 1 1 1 1 1 4
is_linear=0
shrinkage=0.05


Tree=56
num_leaves=12
num_cat=11
split_feature=9 10 11 8 7 7 8 7 7 7 11
split_gain=20.735 0.167345 0.0266041 0.0190032 0.0095307 0.00172677 3.62051e-08 1.37694e-08 7.49136e-10 1.16763e-10 2.11049e-11
threshold=0 1 2 3 4 5 6 7 8 9 10
decision_type=9 1 1 1 9 9 1 9 9 9 1
left_child=-1 2 3 5 -4 -2 8 -8 -3 -9 -10
right_child=1 6 4 -5 -6 -7 7 9 10 -11 -12
